{"learner":{"attributes":{},"feature_names":[],"feature_types":[],"gradient_booster":{"model":{"cats":{"enc":[],"feature_segments":[],"sorted_idx":[]},"gbtree_model_param":{"num_parallel_tree":"1","num_trees":"100"},"iteration_indptr":[0,1,2,3,4,5,6,7,8,9,10,11,12,13,14,15,16,17,18,19,20,21,22,23,24,25,26,27,28,29,30,31,32,33,34,35,36,37,38,39,40,41,42,43,44,45,46,47,48,49,50,51,52,53,54,55,56,57,58,59,60,61,62,63,64,65,66,67,68,69,70,71,72,73,74,75,76,77,78,79,80,81,82,83,84,85,86,87,88,89,90,91,92,93,94,95,96,97,98,99,100],"tree_info":[0,0,0,0,0,0,0,0,0,0,0,0,0,0,0,0,0,0,0,0,0,0,0,0,0,0,0,0,0,0,0,0,0,0,0,0,0,0,0,0,0,0,0,0,0,0,0,0,0,0,0,0,0,0,0,0,0,0,0,0,0,0,0,0,0,0,0,0,0,0,0,0,0,0,0,0,0,0,0,0,0,0,0,0,0,0,0,0,0,0,0,0,0,0,0,0,0,0,0,0],"trees":[{"base_weights":[1.184526E-10,5.092196E-4,-9.955241E-4,1.8324347E-3,-4.135491E-3,-8.1071863E-4,2.4359336E-3,-1.2691152E-2,3.6115295E-4,1.1791061E-3,9.585542E-5,-3.9970214E-4,-1.3491254E-3,-4.135697E-4,2.3894198E-4],"categories":[],"categories_nodes":[],"categories_segments":[],"categories_sizes":[],"default_left":[0,0,0,0,0,0,0,0,0,0,0,0,0,0,0],"id":0,"left_children":[1,3,-1,5,7,-1,9,11,13,-1,-1,-1,-1,-1,-1],"loss_changes":[4.0656608E-3,2.4106447E-3,0E0,3.3613215E-3,3.3516274E-3,0E0,3.2022567E-3,1.7981431E-3,2.251409E-3,0E0,0E0,0E0,0E0,0E0,0E0],"parents":[2147483647,0,0,1,1,3,3,4,4,6,6,7,7,8,8],"right_children":[2,4,-1,6,8,-1,10,12,14,-1,-1,-1,-1,-1,-1],"split_conditions":[9.9585086E-2,1.8867882E-2,-9.955241E-4,-1.6283184E-1,2.1929694E-2,-8.1071863E-4,-1.21777825E-1,1.0840116E-2,2.6315695E-2,1.1791061E-3,9.585542E-5,-3.9970214E-4,-1.3491254E-3,-4.135697E-4,2.3894198E-4],"split_indices":[8,2,0,18,4,0,13,6,2,0,0,0,0,0,0],"split_type":[0,0,0,0,0,0,0,0,0,0,0,0,0,0,0],"sum_hessian":[3.99E2,3.9E2,9E0,3.04E2,8.6E1,9E0,2.95E2,2.9E1,5.7E1,6E0,2.89E2,2.3E1,6E0,1.9E1,3.8E1],"tree_param":{"num_deleted":"0","num_feature":"31","num_nodes":"15","size_leaf_vector":"1"}},{"base_weights":[-6.136797E-6,4.8002656E-4,-9.5072546E-4,1.742335E-3,-3.950825E-3,9.2700374E-4,1.4690839E-2,-9.307474E-3,2.5759244E-3,7.7443656E-5,-8.257925E-4,1.697579E-3,2.3356001E-4,-5.835274E-4,4.5895638E-4,-4.8692196E-4,3.2326026E-4],"categories":[],"categories_nodes":[],"categories_segments":[],"categories_sizes":[],"default_left":[0,0,0,0,0,0,0,0,0,0,0,0,0,0,0,0,0],"id":1,"left_children":[1,3,-1,5,7,9,11,13,15,-1,-1,-1,-1,-1,-1,-1,-1],"loss_changes":[3.7055972E-3,2.1937864E-3,0E0,3.2063639E-3,3.0656261E-3,3.1495672E-3,3.315148E-3,2.2040145E-3,1.9787215E-3,0E0,0E0,0E0,0E0,0E0,0E0,0E0,0E0],"parents":[2147483647,0,0,1,1,3,3,4,4,5,5,6,6,7,7,8,8],"right_children":[2,4,-1,6,8,10,12,14,16,-1,-1,-1,-1,-1,-1,-1,-1],"split_conditions":[9.9585086E-2,1.8867882E-2,-9.5072546E-4,5.1344685E-2,3.3210393E-2,1.1494238E-1,2.3354558E-2,5.1463764E-2,2.6315695E-2,7.7443656E-5,-8.257925E-4,1.697579E-3,2.3356001E-4,-5.835274E-4,4.5895638E-4,-4.8692196E-4,3.2326026E-4],"split_indices":[8,2,0,6,9,21,8,12,2,0,0,0,0,0,0,0,0],"split_type":[0,0,0,0,0,0,0,0,0,0,0,0,0,0,0,0,0],"sum_hessian":[3.99E2,3.9E2,9E0,3.04E2,8.6E1,2.87E2,1.7E1,4.7E1,3.9E1,2.78E2,9E0,5E0,1.2E1,4.2E1,5E0,9E0,3E1],"tree_param":{"num_deleted":"0","num_feature":"31","num_nodes":"17","size_leaf_vector":"1"}},{"base_weights":[-5.97024E-6,4.5831324E-4,-9.079428E-4,3.0507245E-3,-1.7001332E-3,2.159267E-3,1.4122983E-3,-1.6352262E-2,3.2449898E-4,-6.2707526E-4,1.5690483E-4,-4.4422105E-4,-1.9882165E-3,-2.0721488E-4,1.6504251E-4],"categories":[],"categories_nodes":[],"categories_segments":[],"categories_sizes":[],"default_left":[0,0,0,0,0,0,0,0,0,0,0,0,0,0,0],"id":2,"left_children":[1,3,-1,5,7,9,-1,11,13,-1,-1,-1,-1,-1,-1],"loss_changes":[3.3795564E-3,2.1930586E-3,0E0,3.936977E-3,6.3536526E-3,2.5287485E-3,0E0,4.192495E-3,2.5275135E-3,0E0,0E0,0E0,0E0,0E0,0E0],"parents":[2147483647,0,0,1,1,3,3,4,4,5,5,7,7,8,8],"right_children":[2,4,-1,6,8,10,-1,12,14,-1,-1,-1,-1,-1,-1],"split_conditions":[9.9585086E-2,-1.3157841E-2,-9.079428E-4,4.1564766E-2,-4.854368E-2,-1.6283184E-1,1.4122983E-3,-4.173681E-2,2.8077772E-2,-6.2707526E-4,1.5690483E-4,-4.4422105E-4,-1.9882165E-3,-2.0721488E-4,1.6504251E-4],"split_indices":[8,13,0,4,26,18,0,25,12,0,0,0,0,0,0],"split_type":[0,0,0,0,0,0,0,0,0,0,0,0,0,0,0],"sum_hessian":[3.99E2,3.9E2,9E0,1.77E2,2.13E2,1.72E2,5E0,2.5E1,1.88E2,1E1,1.62E2,2E1,5E0,7.5E1,1.13E2],"tree_param":{"num_deleted":"0","num_feature":"31","num_nodes":"15","size_leaf_vector":"1"}},{"base_weights":[-1.177293E-5,4.3147802E-4,-8.670855E-4,1.6352051E-3,-3.7934443E-3,1.1265714E-3,1.0188706E-3,-1.1486103E-2,2.509211E-4,-7.495029E-4,8.4017105E-5,-3.4903287E-4,-1.2646237E-3,-3.757636E-4,2.1135752E-4],"categories":[],"categories_nodes":[],"categories_segments":[],"categories_sizes":[],"default_left":[0,0,0,0,0,0,0,0,0,0,0,0,0,0,0],"id":3,"left_children":[1,3,-1,5,7,9,-1,11,13,-1,-1,-1,-1,-1,-1],"loss_changes":[3.0800868E-3,1.9946934E-3,0E0,2.8845835E-3,2.7096192E-3,2.6848135E-3,0E0,1.689557E-3,1.8228177E-3,0E0,0E0,0E0,0E0,0E0,0E0],"parents":[2147483647,0,0,1,1,3,3,4,4,5,5,7,7,8,8],"right_children":[2,4,-1,6,8,10,-1,12,14,-1,-1,-1,-1,-1,-1],"split_conditions":[9.9585086E-2,1.8867882E-2,-8.670855E-4,6.0606036E-2,2.1929694E-2,-1.6283184E-1,1.0188706E-3,1.0840116E-2,2.6315695E-2,-7.495029E-4,8.4017105E-5,-3.4903287E-4,-1.2646237E-3,-3.757636E-4,2.1135752E-4],"split_indices":[8,2,0,6,4,18,0,6,2,0,0,0,0,0,0],"split_type":[0,0,0,0,0,0,0,0,0,0,0,0,0,0,0],"sum_hessian":[3.99E2,3.9E2,9E0,3.04E2,8.6E1,2.97E2,7E0,2.9E1,5.7E1,9E0,2.88E2,2.3E1,6E0,1.9E1,3.8E1],"tree_param":{"num_deleted":"0","num_feature":"31","num_nodes":"15","size_leaf_vector":"1"}},{"base_weights":[-1.6913624E-5,4.0626054E-4,-8.2806655E-4,2.8968996E-3,-1.6672908E-3,2.0430565E-3,1.3516609E-3,-1.4957694E-2,3.316321E-4,-4.7834892E-5,3.1830187E-4,-4.163742E-4,-1.8940276E-3,-1.9140047E-4,1.5447607E-4],"categories":[],"categories_nodes":[],"categories_segments":[],"categories_sizes":[],"default_left":[0,0,0,0,0,0,0,0,0,0,0,0,0,0,0],"id":4,"left_children":[1,3,-1,5,7,9,-1,11,13,-1,-1,-1,-1,-1,-1],"loss_changes":[2.8071965E-3,2.024137E-3,0E0,3.6131046E-3,5.6901895E-3,2.249534E-3,0E0,3.9400845E-3,2.157059E-3,0E0,0E0,0E0,0E0,0E0,0E0],"parents":[2147483647,0,0,1,1,3,3,4,4,5,5,7,7,8,8],"right_children":[2,4,-1,6,8,10,-1,12,14,-1,-1,-1,-1,-1,-1],"split_conditions":[9.9585086E-2,-1.3157841E-2,-8.2806655E-4,4.1564766E-2,-4.734297E-2,-6.235568E-2,1.3516609E-3,-4.173681E-2,2.8077772E-2,-4.7834892E-5,3.1830187E-4,-4.163742E-4,-1.8940276E-3,-1.9140047E-4,1.5447607E-4],"split_indices":[8,13,0,4,26,21,0,25,12,0,0,0,0,0,0],"split_type":[0,0,0,0,0,0,0,0,0,0,0,0,0,0,0],"sum_hessian":[3.99E2,3.9E2,9E0,1.77E2,2.13E2,1.72E2,5E0,2.7E1,1.86E2,1.02E2,7E1,2.2E1,5E0,7.4E1,1.12E2],"tree_param":{"num_deleted":"0","num_feature":"31","num_nodes":"15","size_leaf_vector":"1"}},{"base_weights":[-1.9951223E-5,1.3799749E-3,-4.591838E-3,-8.800683E-5,7.5519662E-3,-1.7258102E-2,-2.345918E-3,6.047571E-4,-1.5131878E-2,5.193298E-3,1.3760658E-3,-4.8592695E-4,-1.0183456E-3,-9.723494E-3,2.1844893E-3,-7.136227E-4,6.2448154E-5,-1.2728677E-3,-1.14221206E-4,6.778553E-4,3.1740445E-5,2.3171294E-4,-1.0910066E-3,-5.254807E-4,2.9690537E-4],"categories":[],"categories_nodes":[],"categories_segments":[],"categories_sizes":[],"default_left":[0,0,0,0,0,0,0,0,0,0,0,0,0,0,0,0,0,0,0,0,0,0,0,0,0],"id":5,"left_children":[1,3,5,7,9,11,13,15,17,19,-1,-1,-1,21,23,-1,-1,-1,-1,-1,-1,-1,-1,-1,-1],"loss_changes":[2.5664582E-3,2.7821984E-3,2.633571E-3,2.6041921E-3,2.6360357E-3,1.3021007E-4,2.7285381E-3,2.3083985E-3,1.4010614E-3,2.0502154E-3,0E0,0E0,0E0,5.485215E-3,2.492497E-3,0E0,0E0,0E0,0E0,0E0,0E0,0E0,0E0,0E0,0E0],"parents":[2147483647,0,0,1,1,2,2,3,3,4,4,5,5,6,6,7,7,8,8,9,9,13,13,14,14],"right_children":[2,4,6,8,10,12,14,16,18,20,-1,-1,-1,22,24,-1,-1,-1,-1,-1,-1,-1,-1,-1,-1],"split_conditions":[1.8867882E-2,1.4084578E-2,-2.0616683E-3,5.7692245E-2,1.7114922E-2,1.3054873E-2,5.434787E-3,-1.6283184E-1,1.0502295E-1,-3.60825E-2,1.3760658E-3,-4.8592695E-4,-1.0183456E-3,-5.459056E-2,2.6315695E-2,-7.136227E-4,6.2448154E-5,-1.2728677E-3,-1.14221206E-4,6.778553E-4,3.1740445E-5,2.3171294E-4,-1.0910066E-3,-5.254807E-4,2.9690537E-4],"split_indices":[2,3,1,8,1,12,27,18,12,15,0,0,0,17,2,0,0,0,0,0,0,0,0,0,0],"split_type":[0,0,0,0,0,0,0,0,0,0,0,0,0,0,0,0,0,0,0,0,0,0,0,0,0],"sum_hessian":[3.99E2,3.06E2,9.3E1,2.48E2,5.8E1,1.3E1,8E1,2.38E2,1E1,5.3E1,5E0,5E0,8E0,3E1,5E1,9E0,2.29E2,5E0,5E0,1.8E1,3.5E1,1.4E1,1.6E1,1.1E1,3.9E1],"tree_param":{"num_deleted":"0","num_feature":"31","num_nodes":"25","size_leaf_vector":"1"}},{"base_weights":[-2.5315494E-5,3.6299624E-4,-7.602886E-4,7.6404616E-4,-1.23671675E-2,-3.3327978E-4,4.6946374E-3,-1.0223782E-4,-1.1174394E-3,1.1176057E-4,-1.9529766E-4,1.0555675E-3,5.288743E-5],"categories":[],"categories_nodes":[],"categories_segments":[],"categories_sizes":[],"default_left":[0,0,0,0,0,0,0,0,0,0,0,0,0],"id":6,"left_children":[1,3,-1,5,7,9,11,-1,-1,-1,-1,-1,-1],"loss_changes":[2.3634194E-3,2.0056728E-3,0E0,1.6405579E-3,1.1907148E-3,2.7432921E-3,4.9332473E-3,0E0,0E0,0E0,0E0,0E0,0E0],"parents":[2147483647,0,0,1,1,3,3,4,4,5,5,6,6],"right_children":[2,4,-1,6,8,10,12,-1,-1,-1,-1,-1,-1],"split_conditions":[9.9585086E-2,1.4634143E-1,-7.602886E-4,4.1131116E-2,1.2679583E-1,-1.3157841E-2,4.6511553E-2,-1.0223782E-4,-1.1174394E-3,1.1176057E-4,-1.9529766E-4,1.0555675E-3,5.288743E-5],"split_indices":[8,20,0,11,29,13,11,0,0,0,0,0,0],"split_type":[0,0,0,0,0,0,0,0,0,0,0,0,0],"sum_hessian":[3.99E2,3.9E2,9E0,3.79E2,1.1E1,2.97E2,8.2E1,6E0,5E0,1.73E2,1.24E2,1.4E1,6.8E1],"tree_param":{"num_deleted":"0","num_feature":"31","num_nodes":"13","size_leaf_vector":"1"}},{"base_weights":[-2.6437392E-5,1.3058794E-3,-4.3774466E-3,8.2487904E-4,9.590081E-4,-1.0032858E-2,1.8679348E-4,-5.392493E-4,6.7782104E-3,-5.300214E-3,-1.8772675E-3,-1.224643E-2,4.124479E-3,7.1371683E-6,-9.219236E-4,7.8202505E-4,7.101283E-5,-5.6383497E-4,2.6618884E-4,-2.4606573E-4,-9.98609E-4,-4.866629E-4,3.389092E-4],"categories":[],"categories_nodes":[],"categories_segments":[],"categories_sizes":[],"default_left":[0,0,0,0,0,0,0,0,0,0,0,0,0,0,0,0,0,0,0,0,0,0,0],"id":7,"left_children":[1,3,5,7,-1,9,11,13,15,17,-1,19,21,-1,-1,-1,-1,-1,-1,-1,-1,-1,-1],"loss_changes":[2.3244855E-3,2.623623E-3,2.4282634E-3,2.4399874E-3,0E0,5.2696876E-3,2.6452905E-3,2.993381E-3,2.6368762E-3,2.4093175E-3,0E0,6.374066E-4,1.5737219E-3,0E0,0E0,0E0,0E0,0E0,0E0,0E0,0E0,0E0,0E0],"parents":[2147483647,0,0,1,1,2,2,3,3,5,5,6,6,7,7,8,8,9,9,11,11,12,12],"right_children":[2,4,6,8,-1,10,12,14,16,18,-1,20,22,-1,-1,-1,-1,-1,-1,-1,-1,-1,-1],"split_conditions":[1.8867882E-2,6.0606036E-2,4.9375616E-2,1.4084578E-2,9.590081E-4,5.434787E-2,2.6315695E-2,5.7692245E-2,-2.8795807E-2,2.9411754E-2,-1.8772675E-3,4.3290004E-2,2.0450302E-3,7.1371683E-6,-9.219236E-4,7.8202505E-4,7.101283E-5,-5.6383497E-4,2.6618884E-4,-2.4606573E-4,-9.98609E-4,-4.866629E-4,3.389092E-4],"split_indices":[2,6,25,3,0,2,2,8,15,3,0,5,1,0,0,0,0,0,0,0,0,0,0],"split_type":[0,0,0,0,0,0,0,0,0,0,0,0,0,0,0,0,0,0,0,0,0,0,0],"sum_hessian":[3.99E2,3.06E2,9.3E1,2.99E2,7E0,4.1E1,5.2E1,2.44E2,5.5E1,3.6E1,5E0,1.2E1,4E1,2.36E2,8E0,2E1,3.5E1,2.3E1,1.3E1,7E0,5E0,6E0,3.4E1],"tree_param":{"num_deleted":"0","num_feature":"31","num_nodes":"23","size_leaf_vector":"1"}},{"base_weights":[-3.179076E-5,1.2435082E-3,-4.1965246E-3,5.348677E-4,1.259141E-2,-1.5819684E-2,-2.1357746E-3,1.1094132E-3,-7.831675E-4,1.519985E-3,3.4036287E-3,-4.456602E-4,-9.333131E-4,-1.059092E-3,-6.040355E-4,-6.8686006E-4,8.25583E-5,-1.0417628E-4,4.202275E-4,5.037127E-5,-6.3562015E-4],"categories":[],"categories_nodes":[],"categories_segments":[],"categories_sizes":[],"default_left":[0,0,0,0,0,0,0,0,0,0,0,0,0,0,0,0,0,0,0,0,0],"id":8,"left_children":[1,3,5,7,9,11,13,15,-1,-1,17,-1,-1,-1,19,-1,-1,-1,-1,-1,-1],"loss_changes":[2.1297308E-3,2.4620313E-3,2.2177408E-3,2.716295E-3,2.841667E-3,1.08861364E-4,2.350267E-3,2.2828197E-3,0E0,0E0,3.7424188E-4,0E0,0E0,0E0,1.4957308E-3,0E0,0E0,0E0,0E0,0E0,0E0],"parents":[2147483647,0,0,1,1,2,2,3,3,4,4,5,5,6,6,7,7,10,10,14,14],"right_children":[2,4,6,8,10,12,14,16,-1,-1,18,-1,-1,-1,20,-1,-1,-1,-1,-1,-1],"split_conditions":[1.8867882E-2,5.1344685E-2,-2.0616683E-3,1.1494238E-1,2.3354558E-2,1.3054873E-2,-7.399577E-2,-1.6283184E-1,-7.831675E-4,1.519985E-3,1.8867882E-2,-4.456602E-4,-9.333131E-4,-1.059092E-3,1.210526E-1,-6.8686006E-4,8.25583E-5,-1.0417628E-4,4.202275E-4,5.037127E-5,-6.3562015E-4],"split_indices":[2,6,1,21,8,12,10,18,0,0,3,0,0,0,12,0,0,0,0,0,0],"split_type":[0,0,0,0,0,0,0,0,0,0,0,0,0,0,0,0,0,0,0,0,0],"sum_hessian":[3.99E2,3.06E2,9.3E1,2.89E2,1.7E1,1.3E1,8E1,2.8E2,9E0,5E0,1.2E1,5E0,8E0,5E0,7.5E1,9E0,2.71E2,6E0,6E0,6.7E1,8E0],"tree_param":{"num_deleted":"0","num_feature":"31","num_nodes":"21","size_leaf_vector":"1"}},{"base_weights":[-3.663808E-5,2.4797043E-3,-2.045034E-3,1.6935929E-3,1.2366315E-3,-1.3826575E-2,-3.5152293E-4,-1.1480248E-3,5.7920865E-3,-7.5936E-3,-1.7707607E-3,3.3762195E-4,-6.60169E-4,-1.8056155E-4,5.3422025E-4,1.1198497E-3,1.18728494E-4,-6.545614E-5,-7.8162545E-4,-1.7395751E-4,1.433945E-4],"categories":[],"categories_nodes":[],"categories_segments":[],"categories_sizes":[],"default_left":[0,0,0,0,0,0,0,0,0,0,0,0,0,0,0,0,0,0,0,0,0],"id":9,"left_children":[1,3,5,7,-1,9,11,13,15,17,-1,19,-1,-1,-1,-1,-1,-1,-1,-1,-1],"loss_changes":[2.0265956E-3,3.071917E-3,4.4444734E-3,2.0214682E-3,0E0,3.4987922E-3,1.7403889E-3,3.040592E-3,3.9758924E-3,1.1415028E-3,0E0,1.8159222E-3,0E0,0E0,0E0,0E0,0E0,0E0,0E0,0E0,0E0],"parents":[2147483647,0,0,1,1,2,2,3,3,5,5,6,6,7,7,8,8,9,9,11,11],"right_children":[2,4,6,8,-1,10,12,14,16,18,-1,20,-1,-1,-1,-1,-1,-1,-1,-1,-1],"split_conditions":[-1.3157841E-2,4.1564766E-2,-4.734297E-2,-6.235568E-2,1.2366315E-3,-4.173681E-2,9.9585086E-2,1.4319853E-2,-7.487928E-2,1.6932216E-2,-1.7707607E-3,2.8077772E-2,-6.60169E-4,-1.8056155E-4,5.3422025E-4,1.1198497E-3,1.18728494E-4,-6.545614E-5,-7.8162545E-4,-1.7395751E-4,1.433945E-4],"split_indices":[13,4,26,21,0,25,8,3,28,7,0,12,0,0,0,0,0,0,0,0,0],"split_type":[0,0,0,0,0,0,0,0,0,0,0,0,0,0,0,0,0,0,0,0,0],"sum_hessian":[3.99E2,1.77E2,2.22E2,1.72E2,5E0,2.7E1,1.95E2,1.02E2,7E1,2.2E1,5E0,1.86E2,9E0,8.5E1,1.7E1,1.1E1,5.9E1,1.3E1,9E0,7.4E1,1.12E2],"tree_param":{"num_deleted":"0","num_feature":"31","num_nodes":"21","size_leaf_vector":"1"}},{"base_weights":[-3.6005436E-5,1.1786257E-3,-4.002556E-3,7.3401973E-4,8.8520115E-4,-9.287851E-3,2.6131055E-4,1.997919E-3,-4.932403E-3,-4.9142884E-3,-1.7355088E-3,-1.1506992E-2,3.9863503E-3,4.533793E-5,8.8133395E-4,1.7330734E-4,-3.6783965E-4,-5.200264E-4,2.4208576E-4,-2.3043962E-4,-9.393381E-4,-4.4332584E-4,3.221514E-4],"categories":[],"categories_nodes":[],"categories_segments":[],"categories_sizes":[],"default_left":[0,0,0,0,0,0,0,0,0,0,0,0,0,0,0,0,0,0,0,0,0,0,0],"id":10,"left_children":[1,3,5,7,-1,9,11,13,15,17,-1,19,21,-1,-1,-1,-1,-1,-1,-1,-1,-1,-1],"loss_changes":[1.931876E-3,2.2426231E-3,2.1207917E-3,2.158391E-3,0E0,4.4992417E-3,2.369253E-3,4.179174E-3,1.1453743E-3,2.0307363E-3,0E0,5.6624063E-4,1.3517166E-3,0E0,0E0,0E0,0E0,0E0,0E0,0E0,0E0,0E0,0E0],"parents":[2147483647,0,0,1,1,2,2,3,3,5,5,6,6,7,7,8,8,9,9,11,11,12,12],"right_children":[2,4,6,8,-1,10,12,14,16,18,-1,20,22,-1,-1,-1,-1,-1,-1,-1,-1,-1,-1],"split_conditions":[1.8867882E-2,6.0606036E-2,4.9375616E-2,4.4117764E-2,8.8520115E-4,5.434787E-2,2.6315695E-2,2.8571425E-2,2.5741378E-2,2.9411754E-2,-1.7355088E-3,4.3290004E-2,2.0450302E-3,4.533793E-5,8.8133395E-4,1.7330734E-4,-3.6783965E-4,-5.200264E-4,2.4208576E-4,-2.3043962E-4,-9.393381E-4,-4.4332584E-4,3.221514E-4],"split_indices":[2,6,25,14,0,2,2,4,25,3,0,5,1,0,0,0,0,0,0,0,0,0,0],"split_type":[0,0,0,0,0,0,0,0,0,0,0,0,0,0,0,0,0,0,0,0,0,0,0],"sum_hessian":[3.99E2,3.06E2,9.3E1,2.99E2,7E0,4.1E1,5.2E1,2.45E2,5.4E1,3.6E1,5E0,1.2E1,4E1,2.3E2,1.5E1,1.2E1,4.2E1,2.3E1,1.3E1,7E0,5E0,6E0,3.4E1],"tree_param":{"num_deleted":"0","num_feature":"31","num_nodes":"23","size_leaf_vector":"1"}},{"base_weights":[-3.842276E-5,8.730519E-3,-5.71881E-4,1.7298251E-2,8.0932E-4,-8.9097704E-4,-1.9842236E-4,4.485351E-4,1.137138E-3,-4.086881E-4,3.7227332E-4,9.06888E-3,-6.966669E-4,-5.124997E-4,1.0596195E-3,-2.113347E-4,2.457591E-5],"categories":[],"categories_nodes":[],"categories_segments":[],"categories_sizes":[],"default_left":[0,0,0,0,0,0,0,0,0,0,0,0,0,0,0,0,0],"id":11,"left_children":[1,3,5,7,9,-1,11,-1,-1,-1,-1,13,15,-1,-1,-1,-1],"loss_changes":[1.8761383E-3,1.5469346E-3,2.4312711E-3,2.9471517E-4,8.35827E-4,0E0,1.7193671E-3,0E0,0E0,0E0,0E0,4.6672607E-3,1.4826743E-3,0E0,0E0,0E0,0E0],"parents":[2147483647,0,0,1,1,2,2,3,3,4,4,6,6,11,11,12,12],"right_children":[2,4,6,8,10,-1,12,-1,-1,-1,-1,14,16,-1,-1,-1,-1],"split_conditions":[-3.0690495E-2,-7.6305285E-2,-1.18867986E-1,-1E-1,-5.0000004E-2,-8.9097704E-4,-3.4090895E-2,4.485351E-4,1.137138E-3,-4.086881E-4,3.7227332E-4,-4.2769913E-2,-5.3333286E-2,-5.124997E-4,1.0596195E-3,-2.113347E-4,2.457591E-5],"split_indices":[1,14,10,8,8,0,2,0,0,0,0,3,16,0,0,0,0],"split_type":[0,0,0,0,0,0,0,0,0,0,0,0,0,0,0,0,0],"sum_hessian":[3.99E2,2.2E1,3.77E2,1E1,1.2E1,7E0,3.7E2,5E0,5E0,5E0,7E0,1.8E1,3.52E2,7E0,1.1E1,8.8E1,2.64E2],"tree_param":{"num_deleted":"0","num_feature":"31","num_nodes":"17","size_leaf_vector":"1"}},{"base_weights":[-3.3955035E-5,2.356516E-3,-1.9418917E-3,1.6149549E-3,1.1672721E-3,-1.3112985E-2,-3.3611368E-4,-1.0271284E-3,5.4250904E-3,-7.213569E-3,-1.6770958E-3,4.579898E-3,-2.00594E-3,-1.6798175E-4,5.0870655E-4,1.2079225E-3,1.3313918E-4,-6.2399E-5,-7.4220187E-4,-1.5991383E-4,6.569758E-4,-4.4923188E-4,1.6918199E-5],"categories":[],"categories_nodes":[],"categories_segments":[],"categories_sizes":[],"default_left":[0,0,0,0,0,0,0,0,0,0,0,0,0,0,0,0,0,0,0,0,0,0,0],"id":12,"left_children":[1,3,5,7,-1,9,11,13,15,17,-1,19,21,-1,-1,-1,-1,-1,-1,-1,-1,-1,-1],"loss_changes":[1.8289231E-3,2.7327915E-3,3.9958325E-3,1.7471105E-3,0E0,3.1325682E-3,1.6181286E-3,2.7252634E-3,3.6097283E-3,1.0284403E-3,0E0,3.370934E-3,2.4079878E-3,0E0,0E0,0E0,0E0,0E0,0E0,0E0,0E0,0E0,0E0],"parents":[2147483647,0,0,1,1,2,2,3,3,5,5,6,6,7,7,8,8,9,9,11,11,12,12],"right_children":[2,4,6,8,-1,10,12,14,16,18,-1,20,22,-1,-1,-1,-1,-1,-1,-1,-1,-1,-1],"split_conditions":[-1.3157841E-2,4.1564766E-2,-4.734297E-2,-6.235568E-2,1.1672721E-3,-4.173681E-2,2.6455047E-2,1.4319853E-2,-8.009707E-2,1.6932216E-2,-1.6770958E-3,8.771898E-3,5.5509795E-2,-1.6798175E-4,5.0870655E-4,1.2079225E-3,1.3313918E-4,-6.2399E-5,-7.4220187E-4,-1.5991383E-4,6.569758E-4,-4.4923188E-4,1.6918199E-5],"split_indices":[13,4,26,21,0,25,22,3,28,7,0,20,24,0,0,0,0,0,0,0,0,0,0],"split_type":[0,0,0,0,0,0,0,0,0,0,0,0,0,0,0,0,0,0,0,0,0,0,0],"sum_hessian":[3.99E2,1.77E2,2.22E2,1.72E2,5E0,2.7E1,1.95E2,1.02E2,7E1,2.2E1,5E0,4.9E1,1.46E2,8.5E1,1.7E1,8E0,6.2E1,1.3E1,9E0,2.6E1,2.3E1,3.6E1,1.1E2],"tree_param":{"num_deleted":"0","num_feature":"31","num_nodes":"23","size_leaf_vector":"1"}},{"base_weights":[-3.1176918E-5,1.1153602E-3,-3.7753866E-3,6.8992673E-4,8.464847E-4,-1.43591985E-2,-1.899476E-3,1.9057282E-3,-4.760566E-3,-4.0320746E-4,-8.4802153E-4,-7.956767E-3,1.8196516E-3,4.4698747E-5,8.1969047E-4,1.6360462E-4,-3.539167E-4,1.0462194E-4,-1.1016005E-3,-4.556722E-4,2.5270446E-4],"categories":[],"categories_nodes":[],"categories_segments":[],"categories_sizes":[],"default_left":[0,0,0,0,0,0,0,0,0,0,0,0,0,0,0,0,0,0,0,0,0],"id":13,"left_children":[1,3,5,7,-1,9,11,13,15,-1,-1,17,19,-1,-1,-1,-1,-1,-1,-1,-1],"loss_changes":[1.721361E-3,2.0537993E-3,1.8390276E-3,1.9970876E-3,0E0,9.247707E-5,1.8392336E-3,3.5913023E-3,1.047142E-3,0E0,0E0,4.430896E-3,1.849543E-3,0E0,0E0,0E0,0E0,0E0,0E0,0E0,0E0],"parents":[2147483647,0,0,1,1,2,2,3,3,5,5,6,6,7,7,8,8,11,11,12,12],"right_children":[2,4,6,8,-1,10,12,14,16,-1,-1,18,20,-1,-1,-1,-1,-1,-1,-1,-1],"split_conditions":[1.8867882E-2,6.0606036E-2,-2.0616683E-3,4.4117764E-2,8.464847E-4,1.3054873E-2,5.434787E-3,2.8571425E-2,2.5741378E-2,-4.0320746E-4,-8.4802153E-4,1.4888316E-2,2.6315695E-2,4.4698747E-5,8.1969047E-4,1.6360462E-4,-3.539167E-4,1.0462194E-4,-1.1016005E-3,-4.556722E-4,2.5270446E-4],"split_indices":[2,6,1,14,0,12,27,4,25,0,0,6,2,0,0,0,0,0,0,0,0],"split_type":[0,0,0,0,0,0,0,0,0,0,0,0,0,0,0,0,0,0,0,0,0],"sum_hessian":[3.99E2,3.06E2,9.3E1,2.99E2,7E0,1.3E1,8E1,2.45E2,5.4E1,5E0,8E0,3E1,5E1,2.3E2,1.5E1,1.2E1,4.2E1,1.8E1,1.2E1,1.1E1,3.9E1],"tree_param":{"num_deleted":"0","num_feature":"31","num_nodes":"21","size_leaf_vector":"1"}},{"base_weights":[-3.1944728E-5,8.296075E-3,-5.385916E-4,1.6662192E-2,5.78895E-4,-8.346107E-4,-1.8881379E-4,4.349829E-4,1.0923846E-3,-3.9902827E-4,3.4630645E-4,8.576513E-3,-6.60067E-4,-4.829138E-4,1.0009165E-3,-2.0457567E-4,2.4743591E-5],"categories":[],"categories_nodes":[],"categories_segments":[],"categories_sizes":[],"default_left":[0,0,0,0,0,0,0,0,0,0,0,0,0,0,0,0,0],"id":14,"left_children":[1,3,5,7,9,-1,11,-1,-1,-1,-1,13,15,-1,-1,-1,-1],"loss_changes":[1.6922144E-3,1.4752992E-3,2.1326158E-3,2.6411936E-4,7.6155004E-4,0E0,1.5381466E-3,0E0,0E0,0E0,0E0,4.1574854E-3,1.4010029E-3,0E0,0E0,0E0,0E0],"parents":[2147483647,0,0,1,1,2,2,3,3,4,4,6,6,11,11,12,12],"right_children":[2,4,6,8,10,-1,12,-1,-1,-1,-1,14,16,-1,-1,-1,-1],"split_conditions":[-3.0690495E-2,-7.6305285E-2,-1.18867986E-1,-1E-1,-3.8554244E-2,-8.346107E-4,-3.4090895E-2,4.349829E-4,1.0923846E-3,-3.9902827E-4,3.4630645E-4,-4.2769913E-2,-5.3333286E-2,-4.829138E-4,1.0009165E-3,-2.0457567E-4,2.4743591E-5],"split_indices":[1,14,10,8,4,0,2,0,0,0,0,3,16,0,0,0,0],"split_type":[0,0,0,0,0,0,0,0,0,0,0,0,0,0,0,0,0],"sum_hessian":[3.99E2,2.2E1,3.77E2,1E1,1.2E1,7E0,3.7E2,5E0,5E0,5E0,7E0,1.8E1,3.52E2,7E0,1.1E1,8.8E1,2.64E2],"tree_param":{"num_deleted":"0","num_feature":"31","num_nodes":"17","size_leaf_vector":"1"}},{"base_weights":[-2.7901919E-5,2.2353597E-3,-1.8343264E-3,6.099796E-4,1.0920968E-2,-1.2369439E-2,-3.199515E-4,7.510381E-3,-1.3087029E-3,1.5458645E-3,5.229712E-3,-6.7524402E-3,-1.5919848E-3,-1.0077329E-2,4.8598595E-4,-3.0630254E-4,1.0352513E-3,-1.9719129E-4,2.6975496E-4,-2.9728992E-4,4.3321712E-4,-5.8182406E-5,-6.9507526E-4,-8.4776257E-4,-1.8040655E-4,1.4493689E-4,-1.899264E-4],"categories":[],"categories_nodes":[],"categories_segments":[],"categories_sizes":[],"default_left":[0,0,0,0,0,0,0,0,0,0,0,0,0,0,0,0,0,0,0,0,0,0,0,0,0,0,0],"id":15,"left_children":[1,3,5,7,9,11,13,15,17,-1,19,21,-1,23,25,-1,-1,-1,-1,-1,-1,-1,-1,-1,-1,-1,-1],"loss_changes":[1.6394648E-3,2.5062384E-3,3.5538091E-3,2.0090202E-3,3.0248286E-3,2.8472082E-3,1.5462093E-3,6.064459E-3,2.1234527E-3,0E0,9.343426E-4,9.027801E-4,0E0,6.0624303E-4,1.8924302E-3,0E0,0E0,0E0,0E0,0E0,0E0,0E0,0E0,0E0,0E0,0E0,0E0],"parents":[2147483647,0,0,1,1,2,2,3,3,4,4,5,5,6,6,7,7,8,8,10,10,11,11,13,13,14,14],"right_children":[2,4,6,8,10,12,14,16,18,-1,20,22,-1,24,26,-1,-1,-1,-1,-1,-1,-1,-1,-1,-1,-1,-1],"split_conditions":[-1.3157841E-2,-2.1926226E-2,-4.734297E-2,-3.133155E-2,-1.0170988E-1,-4.173681E-2,-1.12359915E-2,-4.106284E-2,1.2986971E-2,1.5458645E-3,-5.700711E-2,1.6932216E-2,-1.5919848E-3,3.626939E-2,5.5164818E-2,-3.0630254E-4,1.0352513E-3,-1.9719129E-4,2.6975496E-4,-2.9728992E-4,4.3321712E-4,-5.8182406E-5,-6.9507526E-4,-8.4776257E-4,-1.8040655E-4,1.4493689E-4,-1.899264E-4],"split_indices":[13,14,26,2,28,25,12,3,3,0,22,7,0,23,10,0,0,0,0,0,0,0,0,0,0,0,0],"split_type":[0,0,0,0,0,0,0,0,0,0,0,0,0,0,0,0,0,0,0,0,0,0,0,0,0,0,0],"sum_hessian":[3.99E2,1.77E2,2.22E2,1.5E2,2.7E1,2.7E1,1.95E2,3.2E1,1.18E2,5E0,2.2E1,2.2E1,5E0,1.4E1,1.81E2,1.6E1,1.6E1,8.5E1,3.3E1,5E0,1.7E1,1.3E1,9E0,6E0,8E0,1.16E2,6.5E1],"tree_param":{"num_deleted":"0","num_feature":"31","num_nodes":"27","size_leaf_vector":"1"}},{"base_weights":[-2.8844579E-5,1.1953794E-3,-3.1487353E-3,3.6502122E-5,6.847117E-3,-6.0730744E-3,1.9393874E-3,7.1254803E-4,-1.2867749E-2,1.9169869E-2,2.7755348E-3,-3.921256E-3,-1.2747033E-3,8.15282E-3,-2.6118597E-3,-1.039366E-5,5.170672E-4,-1.0320897E-3,-8.267023E-5,3.7283145E-4,1.4820169E-3,6.087694E-4,3.1629053E-5,-2.881229E-4,6.210327E-4,-8.886189E-6,8.251555E-4,-3.2899887E-4,5.525254E-4],"categories":[],"categories_nodes":[],"categories_segments":[],"categories_sizes":[],"default_left":[0,0,0,0,0,0,0,0,0,0,0,0,0,0,0,0,0,0,0,0,0,0,0,0,0,0,0,0,0],"id":16,"left_children":[1,3,5,7,9,11,13,15,17,19,21,23,-1,25,27,-1,-1,-1,-1,-1,-1,-1,-1,-1,-1,-1,-1,-1,-1],"loss_changes":[1.5315419E-3,1.8860551E-3,1.6931498E-3,2.1028968E-3,2.4052751E-3,2.9089425E-3,1.2090064E-3,2.0316732E-3,1.0120408E-3,1.250701E-3,7.5774925E-4,2.0574313E-3,0E0,1.2550576E-3,1.428059E-3,0E0,0E0,0E0,0E0,0E0,0E0,0E0,0E0,0E0,0E0,0E0,0E0,0E0,0E0],"parents":[2147483647,0,0,1,1,2,2,3,3,4,4,5,5,6,6,7,7,8,8,9,9,10,10,11,11,13,13,14,14],"right_children":[2,4,6,8,10,12,14,16,18,20,22,24,-1,26,28,-1,-1,-1,-1,-1,-1,-1,-1,-1,-1,-1,-1,-1,-1],"split_conditions":[1.322749E-2,1.3824776E-2,5.9895843E-2,7.2319135E-2,-9.056606E-2,5.962057E-2,8.178055E-2,5.0574627E-2,1.0502295E-1,4.2552855E-3,-3.0701794E-2,3.913049E-2,-1.2747033E-3,8.374392E-2,3.6945798E-2,-1.039366E-5,5.170672E-4,-1.0320897E-3,-8.267023E-5,3.7283145E-4,1.4820169E-3,6.087694E-4,3.1629053E-5,-2.881229E-4,6.210327E-4,-8.886189E-6,8.251555E-4,-3.2899887E-4,5.525254E-4],"split_indices":[2,3,17,9,28,15,15,12,12,1,12,15,0,24,1,0,0,0,0,0,0,0,0,0,0,0,0,0,0],"split_type":[0,0,0,0,0,0,0,0,0,0,0,0,0,0,0,0,0,0,0,0,0,0,0,0,0,0,0,0,0],"sum_hessian":[3.99E2,2.87E2,1.12E2,2.39E2,4.8E1,7.1E1,4.1E1,2.28E2,1.1E1,1.1E1,3.7E1,6.5E1,6E0,1.7E1,2.4E1,2.09E2,1.9E1,6E0,5E0,6E0,5E0,6E0,3.1E1,5.9E1,6E0,9E0,8E0,1.9E1,5E0],"tree_param":{"num_deleted":"0","num_feature":"31","num_nodes":"29","size_leaf_vector":"1"}},{"base_weights":[-2.2439435E-5,2.1221205E-3,-1.73414E-3,1.4343571E-3,1.0799471E-3,-1.1693281E-2,-3.0255792E-4,-1.0801445E-3,4.8936764E-3,-6.301784E-3,-1.5205903E-3,-9.616593E-3,4.667447E-4,-1.6222164E-4,4.5399377E-4,-5.939047E-4,3.570317E-4,-5.2172913E-5,-6.516631E-4,-8.112846E-4,-1.7038362E-4,2.9833612E-4,-6.650542E-5],"categories":[],"categories_nodes":[],"categories_segments":[],"categories_sizes":[],"default_left":[0,0,0,0,0,0,0,0,0,0,0,0,0,0,0,0,0,0,0,0,0,0,0],"id":17,"left_children":[1,3,5,7,-1,9,11,13,15,17,-1,19,21,-1,-1,-1,-1,-1,-1,-1,-1,-1,-1],"loss_changes":[1.4720178E-3,2.3534088E-3,3.175846E-3,1.51012E-3,0E0,2.6341353E-3,1.4088897E-3,2.2503692E-3,2.8358558E-3,8.005153E-4,0E0,5.6023884E-4,1.806579E-3,0E0,0E0,0E0,0E0,0E0,0E0,0E0,0E0,0E0,0E0],"parents":[2147483647,0,0,1,1,2,2,3,3,5,5,6,6,7,7,8,8,9,9,11,11,12,12],"right_children":[2,4,6,8,-1,10,12,14,16,18,-1,20,22,-1,-1,-1,-1,-1,-1,-1,-1,-1,-1],"split_conditions":[-1.3157841E-2,4.1564766E-2,-4.734297E-2,-6.407776E-2,1.0799471E-3,-4.173681E-2,-1.12359915E-2,1.4319853E-2,-4.2769913E-2,1.6932216E-2,-1.5205903E-3,3.626939E-2,2.6455047E-2,-1.6222164E-4,4.5399377E-4,-5.939047E-4,3.570317E-4,-5.2172913E-5,-6.516631E-4,-8.112846E-4,-1.7038362E-4,2.9833612E-4,-6.650542E-5],"split_indices":[13,4,26,21,0,25,12,3,3,7,0,23,22,0,0,0,0,0,0,0,0,0,0],"split_type":[0,0,0,0,0,0,0,0,0,0,0,0,0,0,0,0,0,0,0,0,0,0,0],"sum_hessian":[3.99E2,1.77E2,2.22E2,1.72E2,5E0,2.7E1,1.95E2,1E2,7.2E1,2.2E1,5E0,1.4E1,1.81E2,8.3E1,1.7E1,8E0,6.4E1,1.3E1,9E0,6E0,8E0,4.4E1,1.37E2],"tree_param":{"num_deleted":"0","num_feature":"31","num_nodes":"23","size_leaf_vector":"1"}},{"base_weights":[-2.5916006E-5,7.832735E-3,-5.040193E-4,1.585835E-2,4.393099E-4,-7.6528057E-4,-1.8348897E-4,4.256339E-4,1.0280482E-3,-2.8803488E-4,4.3163844E-4,1.825756E-4,-1.0278388E-2,2.557614E-5,-6.333326E-4,-9.984508E-4,-8.6281005E-5],"categories":[],"categories_nodes":[],"categories_segments":[],"categories_sizes":[],"default_left":[0,0,0,0,0,0,0,0,0,0,0,0,0,0,0,0,0],"id":18,"left_children":[1,3,5,7,9,-1,11,-1,-1,-1,-1,13,15,-1,-1,-1,-1],"loss_changes":[1.5068465E-3,1.3577795E-3,1.7905593E-3,2.049536E-4,7.101243E-4,0E0,1.3728644E-3,0E0,0E0,0E0,0E0,1.523871E-3,1.0430029E-3,0E0,0E0,0E0,0E0],"parents":[2147483647,0,0,1,1,2,2,3,3,4,4,6,6,11,11,12,12],"right_children":[2,4,6,8,10,-1,12,-1,-1,-1,-1,14,16,-1,-1,-1,-1],"split_conditions":[-3.0690495E-2,-7.6305285E-2,-1.18867986E-1,-1E-1,-4.889979E-3,-7.6528057E-4,1.4634143E-1,4.256339E-4,1.0280482E-3,-2.8803488E-4,4.3163844E-4,9.9585086E-2,1.350649E-1,2.557614E-5,-6.333326E-4,-9.984508E-4,-8.6281005E-5],"split_indices":[1,14,10,8,17,0,20,0,0,0,0,8,17,0,0,0,0],"split_type":[0,0,0,0,0,0,0,0,0,0,0,0,0,0,0,0,0],"sum_hessian":[3.99E2,2.2E1,3.77E2,1E1,1.2E1,7E0,3.7E2,5E0,5E0,7E0,5E0,3.58E2,1.2E1,3.5E2,8E0,5E0,7E0],"tree_param":{"num_deleted":"0","num_feature":"31","num_nodes":"17","size_leaf_vector":"1"}},{"base_weights":[-2.6771404E-5,7.510545E-3,-4.8532037E-4,1.5197586E-2,4.2839086E-4,-7.3179946E-4,-1.788765E-4,4.0207515E-4,9.91037E-4,-3.8197226E-4,3.2128594E-4,1.7175388E-4,-9.847909E-3,2.4300976E-5,-6.051845E-4,-9.5684855E-4,-8.250621E-5],"categories":[],"categories_nodes":[],"categories_segments":[],"categories_sizes":[],"default_left":[0,0,0,0,0,0,0,0,0,0,0,0,0,0,0,0,0],"id":19,"left_children":[1,3,5,7,9,-1,11,-1,-1,-1,-1,13,15,-1,-1,-1,-1],"loss_changes":[1.3861364E-3,1.2456283E-3,1.6365359E-3,2.0453171E-4,6.7809987E-4,0E0,1.2594766E-3,0E0,0E0,0E0,0E0,1.3908149E-3,9.583682E-4,0E0,0E0,0E0,0E0],"parents":[2147483647,0,0,1,1,2,2,3,3,4,4,6,6,11,11,12,12],"right_children":[2,4,6,8,10,-1,12,-1,-1,-1,-1,14,16,-1,-1,-1,-1],"split_conditions":[-3.0690495E-2,-7.6305285E-2,-1.18867986E-1,-1.3821141E-1,-5.0000004E-2,-7.3179946E-4,1.4634143E-1,4.0207515E-4,9.91037E-4,-3.8197226E-4,3.2128594E-4,9.9585086E-2,1.350649E-1,2.4300976E-5,-6.051845E-4,-9.5684855E-4,-8.250621E-5],"split_indices":[1,14,10,17,8,0,20,0,0,0,0,8,17,0,0,0,0],"split_type":[0,0,0,0,0,0,0,0,0,0,0,0,0,0,0,0,0],"sum_hessian":[3.99E2,2.2E1,3.77E2,1E1,1.2E1,7E0,3.7E2,5E0,5E0,5E0,7E0,3.58E2,1.2E1,3.5E2,8E0,5E0,7E0],"tree_param":{"num_deleted":"0","num_feature":"31","num_nodes":"17","size_leaf_vector":"1"}},{"base_weights":[-2.7981829E-5,1.110449E-3,-2.9292216E-3,6.797961E-4,8.049162E-4,-5.7995673E-3,2.0611144E-3,1.1681239E-3,-1.1412624E-2,-2.4843197E-3,-1.7247664E-2,7.9055885E-3,-2.229351E-3,-5.753826E-4,8.2373685E-5,-8.723993E-4,-1.7375787E-4,-3.3400694E-4,4.3424877E-4,-5.242527E-4,-1.3385585E-3,1.2040115E-6,7.89221E-4,-3.0574208E-4,5.546921E-4],"categories":[],"categories_nodes":[],"categories_segments":[],"categories_sizes":[],"default_left":[0,0,0,0,0,0,0,0,0,0,0,0,0,0,0,0,0,0,0,0,0,0,0,0,0],"id":20,"left_children":[1,3,5,7,-1,9,11,13,15,17,19,21,23,-1,-1,-1,-1,-1,-1,-1,-1,-1,-1,-1,-1],"loss_changes":[1.324397E-3,1.8479729E-3,1.6305645E-3,1.6726545E-3,0E0,2.6897867E-3,1.0707959E-3,1.6655897E-3,4.6632567E-4,2.729284E-3,7.497631E-4,1.1173674E-3,1.3620154E-3,0E0,0E0,0E0,0E0,0E0,0E0,0E0,0E0,0E0,0E0,0E0,0E0],"parents":[2147483647,0,0,1,1,2,2,3,3,5,5,6,6,7,7,8,8,9,9,10,10,11,11,12,12],"right_children":[2,4,6,8,-1,10,12,14,16,18,20,22,24,-1,-1,-1,-1,-1,-1,-1,-1,-1,-1,-1,-1],"split_conditions":[1.322749E-2,6.0606036E-2,5.9895843E-2,7.296137E-2,8.049162E-4,4.675332E-2,8.178055E-2,-1.6283184E-1,8.225104E-2,5.162184E-3,5.149052E-2,8.374392E-2,7.69231E-2,-5.753826E-4,8.2373685E-5,-8.723993E-4,-1.7375787E-4,-3.3400694E-4,4.3424877E-4,-5.242527E-4,-1.3385585E-3,1.2040115E-6,7.89221E-4,-3.0574208E-4,5.546921E-4],"split_indices":[2,6,17,9,0,19,15,18,10,19,13,24,7,0,0,0,0,0,0,0,0,0,0,0,0],"split_type":[0,0,0,0,0,0,0,0,0,0,0,0,0,0,0,0,0,0,0,0,0,0,0,0,0],"sum_hessian":[3.99E2,2.87E2,1.12E2,2.8E2,7E0,7.1E1,4.1E1,2.7E2,1E1,5.6E1,1.5E1,1.7E1,2.4E1,9E0,2.61E2,5E0,5E0,4.1E1,1.5E1,1E1,5E0,9E0,8E0,1.9E1,5E0],"tree_param":{"num_deleted":"0","num_feature":"31","num_nodes":"25","size_leaf_vector":"1"}},{"base_weights":[-3.0226316E-5,1.9646077E-3,-1.6223799E-3,1.3021402E-3,1.0369163E-3,-1.1111632E-2,-2.5849495E-4,7.088097E-3,-2.1667572E-4,-5.9989695E-3,-1.4429118E-3,-9.283078E-3,4.867096E-4,-5.1084313E-5,1.1696402E-3,-3.6393708E-4,1.036076E-4,-5.1429608E-5,-6.178801E-4,-7.8206434E-4,-1.653175E-4,2.7767147E-4,-5.8450416E-5],"categories":[],"categories_nodes":[],"categories_segments":[],"categories_sizes":[],"default_left":[0,0,0,0,0,0,0,0,0,0,0,0,0,0,0,0,0,0,0,0,0,0,0],"id":21,"left_children":[1,3,5,7,-1,9,11,13,15,17,-1,19,21,-1,-1,-1,-1,-1,-1,-1,-1,-1,-1],"loss_changes":[1.2736203E-3,2.1867785E-3,2.883249E-3,1.5218258E-3,0E0,2.3673878E-3,1.3226495E-3,4.784095E-3,2.2456942E-3,7.1419927E-4,0E0,5.1830395E-4,1.5333006E-3,0E0,0E0,0E0,0E0,0E0,0E0,0E0,0E0,0E0,0E0],"parents":[2147483647,0,0,1,1,2,2,3,3,5,5,6,6,7,7,8,8,9,9,11,11,12,12],"right_children":[2,4,6,8,-1,10,12,14,16,18,-1,20,22,-1,-1,-1,-1,-1,-1,-1,-1,-1,-1],"split_conditions":[-1.3157841E-2,4.1564766E-2,-4.734297E-2,-3.133155E-2,1.0369163E-3,-4.173681E-2,-1.12359915E-2,-3.7406463E-2,-3.1914935E-2,1.6932216E-2,-1.4429118E-3,3.626939E-2,2.6455047E-2,-5.1084313E-5,1.1696402E-3,-3.6393708E-4,1.036076E-4,-5.1429608E-5,-6.178801E-4,-7.8206434E-4,-1.653175E-4,2.7767147E-4,-5.8450416E-5],"split_indices":[13,4,26,2,0,25,12,3,4,7,0,23,22,0,0,0,0,0,0,0,0,0,0],"split_type":[0,0,0,0,0,0,0,0,0,0,0,0,0,0,0,0,0,0,0,0,0,0,0],"sum_hessian":[3.99E2,1.77E2,2.22E2,1.72E2,5E0,2.7E1,1.95E2,3.5E1,1.37E2,2.2E1,5E0,1.4E1,1.81E2,2.4E1,1.1E1,3.3E1,1.04E2,1.3E1,9E0,6E0,8E0,4.4E1,1.37E2],"tree_param":{"num_deleted":"0","num_feature":"31","num_nodes":"23","size_leaf_vector":"1"}},{"base_weights":[-3.107817E-5,7.0563415E-3,-4.6224106E-4,1.4308514E-2,3.7709295E-4,-6.698161E-4,-1.8209312E-4,3.8351907E-4,9.280947E-4,-2.7173E-4,4.0315842E-4,9.84475E-3,-4.871158E-4,7.8534003E-4,1.1709542E-4,-4.7537978E-4,-2.0608215E-6],"categories":[],"categories_nodes":[],"categories_segments":[],"categories_sizes":[],"default_left":[0,0,0,0,0,0,0,0,0,0,0,0,0,0,0,0,0],"id":22,"left_children":[1,3,5,7,9,-1,11,-1,-1,-1,-1,13,15,-1,-1,-1,-1],"loss_changes":[1.2255947E-3,1.108703E-3,1.3672272E-3,1.6820268E-4,6.2451855E-4,0E0,1.1394672E-3,0E0,0E0,0E0,0E0,4.4701842E-4,1.4516317E-3,0E0,0E0,0E0,0E0],"parents":[2147483647,0,0,1,1,2,2,3,3,4,4,6,6,11,11,12,12],"right_children":[2,4,6,8,10,-1,12,-1,-1,-1,-1,14,16,-1,-1,-1,-1],"split_conditions":[-3.0690495E-2,-7.6305285E-2,-1.18867986E-1,-1.3821141E-1,-4.889979E-3,-6.698161E-4,-1.9701017E-2,3.8351907E-4,9.280947E-4,-2.7173E-4,4.0315842E-4,-6.0852007E-3,-5.472636E-2,7.8534003E-4,1.1709542E-4,-4.7537978E-4,-2.0608215E-6],"split_indices":[1,14,10,17,17,0,30,0,0,0,0,2,4,0,0,0,0],"split_type":[0,0,0,0,0,0,0,0,0,0,0,0,0,0,0,0,0],"sum_hessian":[3.99E2,2.2E1,3.77E2,1E1,1.2E1,7E0,3.7E2,5E0,5E0,7E0,5E0,1E1,3.6E2,5E0,5E0,1.6E1,3.44E2],"tree_param":{"num_deleted":"0","num_feature":"31","num_nodes":"17","size_leaf_vector":"1"}},{"base_weights":[-2.652872E-5,1.0522951E-3,-2.7758628E-3,6.399337E-4,7.702477E-4,-5.540738E-3,2.030015E-3,-3.9560898E-4,5.938806E-3,-2.3788814E-3,-1.6458554E-2,7.583694E-3,-2.0498347E-3,1.0454319E-5,-7.8353006E-4,8.821481E-4,8.781365E-5,-3.1575278E-4,4.0511283E-4,-4.9866E-4,-1.280264E-3,1.3819448E-6,7.5683394E-4,-2.890661E-4,5.3650484E-4],"categories":[],"categories_nodes":[],"categories_segments":[],"categories_sizes":[],"default_left":[0,0,0,0,0,0,0,0,0,0,0,0,0,0,0,0,0,0,0,0,0,0,0,0,0],"id":23,"left_children":[1,3,5,7,-1,9,11,13,15,17,19,21,23,-1,-1,-1,-1,-1,-1,-1,-1,-1,-1,-1,-1],"loss_changes":[1.1893399E-3,1.6946652E-3,1.5127523E-3,1.5442551E-3,0E0,2.4463283E-3,9.671886E-4,2.1831417E-3,2.220853E-3,2.4027347E-3,6.9374964E-4,1.0268555E-3,1.2542382E-3,0E0,0E0,0E0,0E0,0E0,0E0,0E0,0E0,0E0,0E0,0E0,0E0],"parents":[2147483647,0,0,1,1,2,2,3,3,5,5,6,6,7,7,8,8,9,9,10,10,11,11,12,12],"right_children":[2,4,6,8,-1,10,12,14,16,18,20,22,24,-1,-1,-1,-1,-1,-1,-1,-1,-1,-1,-1,-1],"split_conditions":[1.322749E-2,6.0606036E-2,5.9895843E-2,1.3824776E-2,7.702477E-4,4.675332E-2,8.178055E-2,5.7692245E-2,-9.056606E-2,5.162184E-3,5.149052E-2,8.374392E-2,3.6945798E-2,1.0454319E-5,-7.8353006E-4,8.821481E-4,8.781365E-5,-3.1575278E-4,4.0511283E-4,-4.9866E-4,-1.280264E-3,1.3819448E-6,7.5683394E-4,-2.890661E-4,5.3650484E-4],"split_indices":[2,6,17,3,0,19,15,8,28,19,13,24,1,0,0,0,0,0,0,0,0,0,0,0,0],"split_type":[0,0,0,0,0,0,0,0,0,0,0,0,0,0,0,0,0,0,0,0,0,0,0,0,0],"sum_hessian":[3.99E2,2.87E2,1.12E2,2.8E2,7E0,7.1E1,4.1E1,2.35E2,4.5E1,5.6E1,1.5E1,1.7E1,2.4E1,2.27E2,8E0,1.1E1,3.4E1,4.1E1,1.5E1,1E1,5E0,9E0,8E0,1.9E1,5E0],"tree_param":{"num_deleted":"0","num_feature":"31","num_nodes":"25","size_leaf_vector":"1"}},{"base_weights":[-2.449416E-5,1.8554872E-3,-1.5249973E-3,3.7513976E-4,9.772522E-3,-1.0492107E-2,-2.3620103E-4,6.694788E-3,-1.3805202E-3,1.4069065E-3,4.556602E-3,-5.6140153E-3,-1.3721387E-3,-6.27569E-3,8.077358E-4,-2.702472E-4,9.200355E-4,-1.8282152E-4,2.2083985E-4,-2.979677E-4,3.904388E-4,-4.494785E-5,-5.8268476E-4,-6.460907E-4,3.9440652E-5,1.6534484E-4,-1.5045067E-4],"categories":[],"categories_nodes":[],"categories_segments":[],"categories_sizes":[],"default_left":[0,0,0,0,0,0,0,0,0,0,0,0,0,0,0,0,0,0,0,0,0,0,0,0,0,0,0],"id":24,"left_children":[1,3,5,7,9,11,13,15,17,-1,19,21,-1,23,25,-1,-1,-1,-1,-1,-1,-1,-1,-1,-1,-1,-1],"loss_changes":[1.1311969E-3,2.0824876E-3,2.5746832E-3,1.6846105E-3,2.5540048E-3,2.1611694E-3,1.2408188E-3,4.7735265E-3,1.5862563E-3,0E0,8.331287E-4,6.4450485E-4,0E0,1.3717882E-3,1.6124472E-3,0E0,0E0,0E0,0E0,0E0,0E0,0E0,0E0,0E0,0E0,0E0,0E0],"parents":[2147483647,0,0,1,1,2,2,3,3,4,4,5,5,6,6,7,7,8,8,10,10,11,11,13,13,14,14],"right_children":[2,4,6,8,10,12,14,16,18,-1,20,22,-1,24,26,-1,-1,-1,-1,-1,-1,-1,-1,-1,-1,-1,-1],"split_conditions":[-1.3157841E-2,-2.1926226E-2,-4.734297E-2,-3.133155E-2,-1.0170988E-1,-4.173681E-2,1.0691627E-2,-4.106284E-2,1.2986971E-2,1.4069065E-3,-5.700711E-2,1.6932216E-2,-1.3721387E-3,4.098393E-3,5.5164818E-2,-2.702472E-4,9.200355E-4,-1.8282152E-4,2.2083985E-4,-2.979677E-4,3.904388E-4,-4.494785E-5,-5.8268476E-4,-6.460907E-4,3.9440652E-5,1.6534484E-4,-1.5045067E-4],"split_indices":[13,14,26,2,28,25,14,3,3,0,22,7,0,11,10,0,0,0,0,0,0,0,0,0,0,0,0],"split_type":[0,0,0,0,0,0,0,0,0,0,0,0,0,0,0,0,0,0,0,0,0,0,0,0,0,0,0],"sum_hessian":[3.99E2,1.77E2,2.22E2,1.5E2,2.7E1,2.7E1,1.95E2,3.2E1,1.18E2,5E0,2.2E1,2.2E1,5E0,2.8E1,1.67E2,1.6E1,1.6E1,8.5E1,3.3E1,5E0,1.7E1,1.3E1,9E0,1.4E1,1.4E1,1.01E2,6.6E1],"tree_param":{"num_deleted":"0","num_feature":"31","num_nodes":"27","size_leaf_vector":"1"}},{"base_weights":[-2.4280327E-5,2.778292E-4,-9.03922E-3,5.4116466E-4,-6.149124E-4,-8.9226983E-4,-6.523432E-5,1.3062571E-5,6.1098454E-3,1.7685235E-5,-7.2755106E-4,9.683179E-4,5.4655353E-5],"categories":[],"categories_nodes":[],"categories_segments":[],"categories_sizes":[],"default_left":[0,0,0,0,0,0,0,0,0,0,0,0,0],"id":25,"left_children":[1,3,5,7,-1,-1,-1,9,11,-1,-1,-1,-1],"loss_changes":[1.091911E-3,1.2916054E-3,8.621691E-4,1.1203771E-3,0E0,0E0,0E0,1.7365847E-3,2.1734773E-3,0E0,0E0,0E0,0E0],"parents":[2147483647,0,0,1,1,2,2,3,3,7,7,8,8],"right_children":[2,4,6,8,-1,-1,-1,10,12,-1,-1,-1,-1],"split_conditions":[1.4634143E-1,7.512953E-2,1.350649E-1,9.74478E-2,-6.149124E-4,-8.9226983E-4,-6.523432E-5,9.730847E-2,1.0091718E-1,1.7685235E-5,-7.2755106E-4,9.683179E-4,5.4655353E-5],"split_indices":[20,2,17,21,0,0,0,20,20,0,0,0,0],"split_type":[0,0,0,0,0,0,0,0,0,0,0,0,0],"sum_hessian":[3.99E2,3.87E2,1.2E1,3.8E2,7E0,5E0,7E0,3.48E2,3.2E1,3.41E2,7E0,8E0,2.4E1],"tree_param":{"num_deleted":"0","num_feature":"31","num_nodes":"13","size_leaf_vector":"1"}},{"base_weights":[-2.6214606E-5,4.2940974E-3,-6.41569E-4,5.3523114E-4,1.3653907E-3,-6.2247016E-3,1.9982211E-4,-3.0428555E-3,1.0330367E-2,-1.1265212E-2,2.2419372E-3,1.2613414E-2,-7.591212E-4,-7.56304E-6,-8.014911E-4,1.1080274E-3,-6.427768E-5,-9.0490247E-4,-1.3257987E-4,8.383707E-4,-3.2090434E-4,8.497548E-5,1.4094554E-3,-6.2231196E-4,-5.47158E-6],"categories":[],"categories_nodes":[],"categories_segments":[],"categories_sizes":[],"default_left":[0,0,0,0,0,0,0,0,0,0,0,0,0,0,0,0,0,0,0,0,0,0,0,0,0],"id":26,"left_children":[1,3,5,7,-1,9,11,13,15,17,19,21,23,-1,-1,-1,-1,-1,-1,-1,-1,-1,-1,-1,-1],"loss_changes":[1.0661641E-3,4.310658E-3,1.6501007E-3,1.573539E-3,0E0,1.9883602E-3,3.6521778E-3,1.2368257E-3,1.6775095E-3,1.6588185E-3,2.3718525E-3,3.6919077E-3,2.1626423E-3,0E0,0E0,0E0,0E0,0E0,0E0,0E0,0E0,0E0,0E0,0E0,0E0],"parents":[2147483647,0,0,1,1,2,2,3,3,5,5,6,6,7,7,8,8,9,9,10,10,11,11,12,12],"right_children":[2,4,6,8,-1,10,12,14,16,18,20,22,24,-1,-1,-1,-1,-1,-1,-1,-1,-1,-1,-1,-1],"split_conditions":[-1.2368969E-1,-9.8039225E-2,-8.737864E-2,-1.4418603E-1,1.3653907E-3,3.986498E-3,-7.710849E-2,-9.224316E-2,-7.6305285E-2,-9.263155E-2,-1.0262525E-1,-3.5398375E-2,-6.666657E-2,-7.56304E-6,-8.014911E-4,1.1080274E-3,-6.427768E-5,-9.0490247E-4,-1.3257987E-4,8.383707E-4,-3.2090434E-4,8.497548E-5,1.4094554E-3,-6.2231196E-4,-5.47158E-6],"split_indices":[29,22,27,29,0,30,28,18,14,25,28,21,29,0,0,0,0,0,0,0,0,0,0,0,0],"split_type":[0,0,0,0,0,0,0,0,0,0,0,0,0,0,0,0,0,0,0,0,0,0,0,0,0],"sum_hessian":[3.99E2,4.9E1,3.5E2,4.3E1,6E0,4.5E1,3.05E2,3.2E1,1.1E1,2.8E1,1.7E1,2.1E1,2.84E2,2.7E1,5E0,5E0,6E0,1.5E1,1.3E1,6E0,1.1E1,1.3E1,8E0,1.4E1,2.7E2],"tree_param":{"num_deleted":"0","num_feature":"31","num_nodes":"25","size_leaf_vector":"1"}},{"base_weights":[-2.0037085E-5,3.738697E-3,-7.0741604E-4,-9.447901E-4,9.844876E-3,-1.1384007E-2,6.9457754E-5,1.8785695E-3,-6.454966E-4,-8.7760686E-4,1.6203843E-2,-1.5754962E-2,4.2872958E-5,4.2039906E-3,-1.2745549E-3,-4.21006E-4,2.1375563E-4,4.5778282E-4,-5.382301E-4,1.4060264E-3,2.5250553E-4,-4.461121E-4,-9.335394E-4,-2.087787E-4,3.7852634E-4,-4.4926055E-4,2.0847606E-6],"categories":[],"categories_nodes":[],"categories_segments":[],"categories_sizes":[],"default_left":[0,0,0,0,0,0,0,0,0,0,0,0,0,0,0,0,0,0,0,0,0,0,0,0,0,0,0],"id":27,"left_children":[1,3,5,7,9,11,13,15,-1,17,19,21,-1,23,25,-1,-1,-1,-1,-1,-1,-1,-1,-1,-1,-1,-1],"loss_changes":[1.0361148E-3,1.7823903E-3,2.81258E-3,1.2404005E-3,1.8551862E-3,1.244168E-3,1.7668842E-3,7.7643443E-4,0E0,1.189744E-3,2.1175519E-3,1.7210608E-4,0E0,2.2319993E-3,2.4361708E-3,0E0,0E0,0E0,0E0,0E0,0E0,0E0,0E0,0E0,0E0,0E0,0E0],"parents":[2147483647,0,0,1,1,2,2,3,3,4,4,5,5,6,6,7,7,9,9,10,10,11,11,13,13,14,14],"right_children":[2,4,6,8,10,12,14,16,-1,18,20,22,-1,24,26,-1,-1,-1,-1,-1,-1,-1,-1,-1,-1,-1,-1],"split_conditions":[-7.6305285E-2,-9.574475E-2,-6.279064E-2,-8.837209E-2,-8.837209E-2,2.0326735E-3,-2.092057E-2,-1.8840586E-1,-6.454966E-4,-8.67923E-2,-7.751201E-2,-5.10639E-2,4.2872958E-5,-6.443908E-2,-4.2755287E-2,-4.21006E-4,2.1375563E-4,4.5778282E-4,-5.382301E-4,1.4060264E-3,2.5250553E-4,-4.461121E-4,-9.335394E-4,-2.087787E-4,3.7852634E-4,-4.4926055E-4,2.0847606E-6],"split_indices":[14,14,14,16,15,4,13,17,0,14,15,6,0,18,26,0,0,0,0,0,0,0,0,0,0,0,0],"split_type":[0,0,0,0,0,0,0,0,0,0,0,0,0,0,0,0,0,0,0,0,0,0,0,0,0,0,0],"sum_hessian":[3.99E2,6.1E1,3.38E2,3.5E1,2.6E1,2.2E1,3.16E2,2.9E1,6E0,1E1,1.6E1,1.6E1,6E0,7.7E1,2.39E2,5E0,2.4E1,5E0,5E0,7E0,9E0,6E0,1E1,2.2E1,5.5E1,3.4E1,2.05E2],"tree_param":{"num_deleted":"0","num_feature":"31","num_nodes":"27","size_leaf_vector":"1"}},{"base_weights":[-2.1257367E-5,2.681657E-4,-8.657787E-3,-5.039991E-4,4.4157375E-3,-8.549508E-4,-6.223215E-5,-6.721849E-6,-1.1653377E-3,8.6285407E-4,2.1518164E-3,1.7125129E-5,-9.228146E-4,1.7555782E-7,9.489811E-4],"categories":[],"categories_nodes":[],"categories_segments":[],"categories_sizes":[],"default_left":[0,0,0,0,0,0,0,0,0,0,0,0,0,0,0],"id":28,"left_children":[1,3,5,7,9,-1,-1,11,-1,-1,13,-1,-1,-1,-1],"loss_changes":[1.0021661E-3,1.2448378E-3,7.9220627E-4,3.7191308E-3,1.7362451E-3,0E0,0E0,2.0809805E-3,0E0,0E0,1.9159504E-3,0E0,0E0,0E0,0E0],"parents":[2147483647,0,0,1,1,2,2,3,3,4,4,7,7,10,10],"right_children":[2,4,6,8,10,-1,-1,12,-1,-1,14,-1,-1,-1,-1],"split_conditions":[1.4634143E-1,8.7640636E-2,1.350649E-1,5.434787E-2,8.32539E-2,-8.549508E-4,-6.223215E-5,8.510638E-2,-1.1653377E-3,8.6285407E-4,7.373267E-2,1.7125129E-5,-9.228146E-4,1.7555782E-7,9.489811E-4],"split_indices":[20,25,17,2,27,0,0,25,0,0,7,0,0,0,0],"split_type":[0,0,0,0,0,0,0,0,0,0,0,0,0,0,0],"sum_hessian":[3.99E2,3.87E2,1.2E1,3.27E2,6E1,5E0,7E0,3.21E2,6E0,8E0,5.2E1,3.16E2,5E0,4.7E1,5E0],"tree_param":{"num_deleted":"0","num_feature":"31","num_nodes":"15","size_leaf_vector":"1"}},{"base_weights":[-2.3135037E-5,6.322832E-3,-4.0920408E-4,1.2845083E-2,3.1763146E-4,-6.5948773E-4,-1.6760983E-4,3.3884714E-4,8.3861884E-4,-3.5060733E-4,2.8876305E-4,7.4109493E-4,-5.3776905E-4,-3.297479E-4,5.314484E-6],"categories":[],"categories_nodes":[],"categories_segments":[],"categories_sizes":[],"default_left":[0,0,0,0,0,0,0,0,0,0,0,0,0,0,0],"id":29,"left_children":[1,3,5,7,9,-1,11,-1,-1,-1,-1,-1,13,-1,-1],"loss_changes":[9.825798E-4,8.967708E-4,1.1649426E-3,1.4847971E-4,5.6053867E-4,0E0,2.0720146E-3,0E0,0E0,0E0,0E0,0E0,1.4207327E-3,0E0,0E0],"parents":[2147483647,0,0,1,1,2,2,3,3,4,4,6,6,12,12],"right_children":[2,4,6,8,10,-1,12,-1,-1,-1,-1,-1,14,-1,-1],"split_conditions":[-3.0690495E-2,-7.6305285E-2,-1.4844443E-1,-1E-1,-5.0000004E-2,-6.5948773E-4,-1.1428574E-1,3.3884714E-4,8.3861884E-4,-3.5060733E-4,2.8876305E-4,7.4109493E-4,-6.5573715E-2,-3.297479E-4,5.314484E-6],"split_indices":[1,14,16,8,8,0,13,0,0,0,0,0,10,0,0],"split_type":[0,0,0,0,0,0,0,0,0,0,0,0,0,0,0],"sum_hessian":[3.99E2,2.2E1,3.77E2,1E1,1.2E1,6E0,3.71E2,5E0,5E0,5E0,7E0,8E0,3.63E2,3.4E1,3.29E2],"tree_param":{"num_deleted":"0","num_feature":"31","num_nodes":"15","size_leaf_vector":"1"}},{"base_weights":[-1.9796278E-5,1.7236923E-4,-6.333696E-4,-5.1373465E-4,3.5388737E-3,-4.07635E-5,-1.1132292E-3,8.2426885E-4,1.5040026E-3,1.6588363E-5,-8.452631E-4,-2.3483408E-5,8.1163266E-4],"categories":[],"categories_nodes":[],"categories_segments":[],"categories_sizes":[],"default_left":[0,0,0,0,0,0,0,0,0,0,0,0,0],"id":30,"left_children":[1,3,-1,5,7,9,-1,-1,11,-1,-1,-1,-1],"loss_changes":[9.74356E-4,9.1417786E-4,0E0,3.3836875E-3,1.740285E-3,2.0348702E-3,0E0,0E0,1.7227246E-3,0E0,0E0,0E0,0E0],"parents":[2147483647,0,0,1,1,3,3,4,4,5,5,8,8],"right_children":[2,4,-1,6,8,10,-1,-1,12,-1,-1,-1,-1],"split_conditions":[1.7158169E-1,8.7640636E-2,-6.333696E-4,5.434787E-2,8.32539E-2,8.510638E-2,-1.1132292E-3,8.2426885E-4,7.69231E-2,1.6588363E-5,-8.452631E-4,-2.3483408E-5,8.1163266E-4],"split_indices":[20,25,0,2,27,25,0,0,7,0,0,0,0],"split_type":[0,0,0,0,0,0,0,0,0,0,0,0,0],"sum_hessian":[3.99E2,3.94E2,5E0,3.28E2,6.6E1,3.22E2,6E0,8E0,5.8E1,3.16E2,6E0,5.2E1,6E0],"tree_param":{"num_deleted":"0","num_feature":"31","num_nodes":"13","size_leaf_vector":"1"}},{"base_weights":[-2.1213627E-5,9.347467E-4,-2.4574557E-3,6.163315E-4,7.8987685E-4,-5.0782287E-3,2.0938085E-3,-4.304107E-4,5.27456E-3,-2.0971806E-3,-1.5380822E-2,-6.1973435E-4,9.7974045E-3,2.6000326E-4,-8.3313615E-5,8.486043E-4,6.704999E-5,-2.826102E-4,3.682915E-4,-3.6132606E-4,-1.0460055E-3,4.0897104E-4,-2.2092543E-4,2.2796071E-4,6.7013473E-4],"categories":[],"categories_nodes":[],"categories_segments":[],"categories_sizes":[],"default_left":[0,0,0,0,0,0,0,0,0,0,0,0,0,0,0,0,0,0,0,0,0,0,0,0,0],"id":31,"left_children":[1,3,5,7,-1,9,11,13,15,17,19,21,23,-1,-1,-1,-1,-1,-1,-1,-1,-1,-1,-1,-1],"loss_changes":[9.3387737E-4,1.3532343E-3,1.3584776E-3,1.3821681E-3,0E0,2.1790452E-3,8.840414E-4,1.6230344E-3,2.3699123E-3,1.9591833E-3,5.715252E-4,1.1057729E-3,1.466315E-4,0E0,0E0,0E0,0E0,0E0,0E0,0E0,0E0,0E0,0E0,0E0,0E0],"parents":[2147483647,0,0,1,1,2,2,3,3,5,5,6,6,7,7,8,8,9,9,10,10,11,11,12,12],"right_children":[2,4,6,8,-1,10,12,14,16,18,20,22,24,-1,-1,-1,-1,-1,-1,-1,-1,-1,-1,-1,-1],"split_conditions":[1.322749E-2,7.365154E-2,5.9895843E-2,1.3157796E-2,7.8987685E-4,4.675332E-2,3.6945798E-2,-8.450705E-2,-9.056606E-2,5.162184E-3,2.524908E-2,7.518147E-2,6.502247E-2,2.6000326E-4,-8.3313615E-5,8.486043E-4,6.704999E-5,-2.826102E-4,3.682915E-4,-3.6132606E-4,-1.0460055E-3,4.0897104E-4,-2.2092543E-4,2.2796071E-4,6.7013473E-4],"split_indices":[2,6,17,3,0,19,1,14,28,19,7,15,7,0,0,0,0,0,0,0,0,0,0,0,0],"split_type":[0,0,0,0,0,0,0,0,0,0,0,0,0,0,0,0,0,0,0,0,0,0,0,0,0],"sum_hessian":[3.99E2,2.87E2,1.12E2,2.82E2,5E0,7.1E1,4.1E1,2.31E2,5.1E1,5.6E1,1.5E1,3.1E1,1E1,4.1E1,1.9E2,1.2E1,3.9E1,4.1E1,1.5E1,7E0,8E0,9E0,2.2E1,5E0,5E0],"tree_param":{"num_deleted":"0","num_feature":"31","num_nodes":"25","size_leaf_vector":"1"}},{"base_weights":[-1.6036154E-5,8.967317E-3,-2.6937167E-4,7.0775923E-4,1.1424487E-4,3.8448845E-3,-8.7184506E-4,2.8631478E-4,1.2831884E-3,-7.058408E-3,-1.8608215E-4,-1.5102094E-4,4.6779864E-4,-4.060546E-5,-9.2211406E-4,6.580362E-4,-2.4741452E-5],"categories":[],"categories_nodes":[],"categories_segments":[],"categories_sizes":[],"default_left":[0,0,0,0,0,0,0,0,0,0,0,0,0,0,0,0,0],"id":32,"left_children":[1,3,5,-1,-1,7,9,11,-1,13,15,-1,-1,-1,-1,-1,-1],"loss_changes":[9.127364E-4,3.4899946E-4,9.7005686E-4,0E0,0E0,3.8748533E-3,1.4453843E-3,1.3478604E-3,0E0,2.4026628E-3,1.2757143E-3,0E0,0E0,0E0,0E0,0E0,0E0],"parents":[2147483647,0,0,1,1,2,2,5,5,6,6,7,7,9,9,10,10],"right_children":[2,4,6,-1,-1,8,10,12,-1,14,16,-1,-1,-1,-1,-1,-1],"split_conditions":[-1.9701017E-2,-6.0852007E-3,-1.2368969E-1,7.0775923E-4,1.1424487E-4,-9.8039225E-2,-8.163274E-2,-1.4418603E-1,1.2831884E-3,-6.874992E-2,-8.8176325E-2,-1.5102094E-4,4.6779864E-4,-4.060546E-5,-9.2211406E-4,6.580362E-4,-2.4741452E-5],"split_indices":[30,2,29,0,0,22,22,29,0,17,13,0,0,0,0,0,0],"split_type":[0,0,0,0,0,0,0,0,0,0,0,0,0,0,0,0,0],"sum_hessian":[3.99E2,1E1,3.89E2,5E0,5E0,4.9E1,3.4E2,4.3E1,6E0,3.3E1,3.07E2,3.2E1,1.1E1,2.2E1,1.1E1,6E0,3.01E2],"tree_param":{"num_deleted":"0","num_feature":"31","num_nodes":"17","size_leaf_vector":"1"}},{"base_weights":[-1.0002927E-5,5.9859427E-3,-3.7480914E-4,1.1992282E-2,4.4319808E-4,-6.350553E-4,-1.4185514E-4,3.0918277E-4,7.9010986E-4,-3.2365715E-4,2.787527E-4,6.896173E-4,-4.8599238E-4,-4.8168632E-4,-4.6279056E-6],"categories":[],"categories_nodes":[],"categories_segments":[],"categories_sizes":[],"default_left":[0,0,0,0,0,0,0,0,0,0,0,0,0,0,0],"id":33,"left_children":[1,3,5,7,9,-1,11,-1,-1,-1,-1,-1,13,-1,-1],"loss_changes":[8.7718683E-4,7.603921E-4,1.0836102E-3,1.4571869E-4,4.975057E-4,0E0,1.7905462E-3,0E0,0E0,0E0,0E0,0E0,1.3091561E-3,0E0,0E0],"parents":[2147483647,0,0,1,1,2,2,3,3,4,4,6,6,12,12],"right_children":[2,4,6,8,10,-1,12,-1,-1,-1,-1,-1,14,-1,-1],"split_conditions":[-3.0690495E-2,-7.6305285E-2,-1.4844443E-1,-1E-1,-5.0000004E-2,-6.350553E-4,-1.1428574E-1,3.0918277E-4,7.9010986E-4,-3.2365715E-4,2.787527E-4,6.896173E-4,-5.472636E-2,-4.8168632E-4,-4.6279056E-6],"split_indices":[1,14,16,8,8,0,13,0,0,0,0,0,4,0,0],"split_type":[0,0,0,0,0,0,0,0,0,0,0,0,0,0,0],"sum_hessian":[3.99E2,2.2E1,3.77E2,1E1,1.2E1,6E0,3.71E2,5E0,5E0,5E0,7E0,8E0,3.63E2,1.4E1,3.49E2],"tree_param":{"num_deleted":"0","num_feature":"31","num_nodes":"15","size_leaf_vector":"1"}},{"base_weights":[-7.9463225E-6,1.7109474E-4,-5.896746E-4,-4.771222E-4,3.3515764E-3,-2.9950965E-5,-1.052136E-3,8.337752E-4,1.5191933E-3,1.8685318E-5,-7.0773147E-4,7.16549E-4,4.696108E-6],"categories":[],"categories_nodes":[],"categories_segments":[],"categories_sizes":[],"default_left":[0,0,0,0,0,0,0,0,0,0,0,0,0],"id":34,"left_children":[1,3,-1,5,7,9,-1,-1,11,-1,-1,-1,-1],"loss_changes":[8.460564E-4,8.159477E-4,0E0,3.0249667E-3,1.6104409E-3,1.8468836E-3,0E0,0E0,1.0942703E-3,0E0,0E0,0E0,0E0],"parents":[2147483647,0,0,1,1,3,3,4,4,5,5,8,8],"right_children":[2,4,-1,6,8,10,-1,-1,12,-1,-1,-1,-1],"split_conditions":[1.7158169E-1,8.7640636E-2,-5.896746E-4,5.434787E-2,-1.0362749E-2,8.421056E-2,-1.052136E-3,8.337752E-4,8.3146036E-2,1.8685318E-5,-7.0773147E-4,7.16549E-4,4.696108E-6],"split_indices":[20,25,0,2,8,25,0,0,27,0,0,0,0],"split_type":[0,0,0,0,0,0,0,0,0,0,0,0,0],"sum_hessian":[3.99E2,3.94E2,5E0,3.28E2,6.6E1,3.22E2,6E0,7E0,5.9E1,3.14E2,8E0,5E0,5.4E1],"tree_param":{"num_deleted":"0","num_feature":"31","num_nodes":"13","size_leaf_vector":"1"}},{"base_weights":[-9.488559E-6,8.561155E-3,-2.512003E-4,6.758736E-4,1.0889893E-4,5.6797853E-3,-6.212043E-4,1.1475617E-2,3.3871274E-4,-9.044024E-3,-1.3674123E-4,2.9552155E-4,7.5641007E-4,-2.3265624E-4,3.469022E-4,-7.8486616E-4,-4.1049683E-5,4.3358846E-4,-2.791482E-5],"categories":[],"categories_nodes":[],"categories_segments":[],"categories_sizes":[],"default_left":[0,0,0,0,0,0,0,0,0,0,0,0,0,0,0,0,0,0,0],"id":35,"left_children":[1,3,5,-1,-1,7,9,11,13,15,17,-1,-1,-1,-1,-1,-1,-1,-1],"loss_changes":[8.308007E-4,3.185667E-4,8.593787E-4,0E0,0E0,7.081001E-4,1.5004041E-3,1.3418612E-4,4.605398E-4,1.0813181E-3,1.3007736E-3,0E0,0E0,0E0,0E0,0E0,0E0,0E0,0E0],"parents":[2147483647,0,0,1,1,2,2,5,5,6,6,7,7,8,8,9,9,10,10],"right_children":[2,4,6,-1,-1,8,10,12,14,16,18,-1,-1,-1,-1,-1,-1,-1,-1],"split_conditions":[-1.9701017E-2,-6.0852007E-3,-3.0690495E-2,6.758736E-4,1.0889893E-4,-7.6305285E-2,-5.472636E-2,-1E-1,-4.889979E-3,-4.962772E-3,-3.4090895E-2,2.9552155E-4,7.5641007E-4,-2.3265624E-4,3.469022E-4,-7.8486616E-4,-4.1049683E-5,4.3358846E-4,-2.791482E-5],"split_indices":[30,2,1,0,0,14,4,8,17,1,2,0,0,0,0,0,0,0,0],"split_type":[0,0,0,0,0,0,0,0,0,0,0,0,0,0,0,0,0,0,0],"sum_hessian":[3.99E2,1E1,3.89E2,5E0,5E0,2.2E1,3.67E2,1E1,1.2E1,1.9E1,3.48E2,5E0,5E0,7E0,5E0,1E1,9E0,1.5E1,3.33E2],"tree_param":{"num_deleted":"0","num_feature":"31","num_nodes":"19","size_leaf_vector":"1"}},{"base_weights":[-5.1873812E-6,1.809987E-3,-1.0899323E-3,-8.1171776E-4,9.558477E-3,-9.834046E-3,1.4154935E-4,4.6290024E-4,-1.2672985E-2,-2.956287E-4,1.3242669E-2,-5.4005245E-3,-1.0952676E-3,6.6306797E-4,-2.8626563E-4,-4.876063E-5,1.0162453E-3,-9.015379E-4,-2.6015242E-4,9.687231E-4,2.7052299E-4,-4.6745935E-4,2.762341E-4,-1.7525633E-4,6.294923E-5],"categories":[],"categories_nodes":[],"categories_segments":[],"categories_sizes":[],"default_left":[0,0,0,0,0,0,0,0,0,0,0,0,0,0,0,0,0,0,0,0,0,0,0,0,0],"id":36,"left_children":[1,3,5,7,9,11,13,15,17,-1,19,21,-1,-1,23,-1,-1,-1,-1,-1,-1,-1,-1,-1,-1],"loss_changes":[7.8957324E-4,3.054897E-3,2.7042138E-3,1.7142664E-3,2.2442346E-3,1.5407698E-3,1.2442365E-3,2.9618933E-3,3.464294E-4,0E0,1.3839649E-3,1.08701E-3,0E0,0E0,1.0738112E-3,0E0,0E0,0E0,0E0,0E0,0E0,0E0,0E0,0E0,0E0],"parents":[2147483647,0,0,1,1,2,2,3,3,4,4,5,5,6,6,7,7,8,8,10,10,11,11,14,14],"right_children":[2,4,6,8,10,12,14,16,18,-1,20,22,-1,-1,24,-1,-1,-1,-1,-1,-1,-1,-1,-1,-1],"split_conditions":[-2.8795807E-2,-4.8936136E-2,-1.0446451E-2,1.6932216E-2,-3.9164487E-2,-5.6869304E-3,-5.62249E-2,6.3425032E-3,1.2294991E-2,-2.956287E-4,-5.1281948E-2,-8.695621E-3,-1.0952676E-3,6.6306797E-4,2.5641061E-2,-4.876063E-5,1.0162453E-3,-9.015379E-4,-2.6015242E-4,9.687231E-4,2.7052299E-4,-4.6745935E-4,2.762341E-4,-1.7525633E-4,6.294923E-5],"split_indices":[15,16,15,8,8,18,8,8,5,0,19,14,0,0,29,0,0,0,0,0,0,0,0,0,0],"split_type":[0,0,0,0,0,0,0,0,0,0,0,0,0,0,0,0,0,0,0,0,0,0,0,0,0],"sum_hessian":[3.99E2,1.49E2,2.5E2,1.12E2,3.7E1,3E1,2.2E2,1.02E2,1E1,7E0,3E1,2.3E1,7E0,6E0,2.14E2,9.6E1,6E0,5E0,5E0,1.6E1,1.4E1,1.7E1,6E0,6.9E1,1.45E2],"tree_param":{"num_deleted":"0","num_feature":"31","num_nodes":"25","size_leaf_vector":"1"}},{"base_weights":[-4.893742E-6,2.5121894E-4,-7.648496E-3,-7.1668954E-5,8.2851425E-3,-7.8479445E-4,-3.2844513E-5,2.2927772E-4,-9.283973E-4,8.26016E-4,1.2577609E-4,3.2904733E-5,-5.782166E-4],"categories":[],"categories_nodes":[],"categories_segments":[],"categories_sizes":[],"default_left":[0,0,0,0,0,0,0,0,0,0,0,0,0],"id":37,"left_children":[1,3,5,7,9,-1,-1,11,-1,-1,-1,-1,-1],"loss_changes":[7.849708E-4,1.0070879E-3,7.2112406E-4,2.086088E-3,6.711505E-4,0E0,0E0,1.873754E-3,0E0,0E0,0E0,0E0,0E0],"parents":[2147483647,0,0,1,1,2,2,3,3,4,4,7,7],"right_children":[2,4,6,8,10,-1,-1,12,-1,-1,-1,-1,-1],"split_conditions":[1.4634143E-1,1.1956531E-1,1.350649E-1,7.512953E-2,1.1294904E-1,-7.8479445E-4,-3.2844513E-5,1.0813718E-1,-9.283973E-4,8.26016E-4,1.2577609E-4,3.2904733E-5,-5.782166E-4],"split_indices":[20,22,17,2,21,0,0,23,0,0,0,0,0],"split_type":[0,0,0,0,0,0,0,0,0,0,0,0,0],"sum_hessian":[3.99E2,3.87E2,1.2E1,3.73E2,1.4E1,5E0,7E0,3.68E2,5E0,5E0,9E0,3.56E2,1.2E1],"tree_param":{"num_deleted":"0","num_feature":"31","num_nodes":"13","size_leaf_vector":"1"}},{"base_weights":[-7.9979045E-6,1.6170231E-4,-5.589298E-4,8.173699E-3,-6.763187E-5,6.4094795E-4,1.08307744E-4,-7.393537E-4,3.1315754E-3,-1.6194492E-5,-9.605451E-4,7.7663973E-4,7.129434E-5],"categories":[],"categories_nodes":[],"categories_segments":[],"categories_sizes":[],"default_left":[0,0,0,0,0,0,0,0,0,0,0,0,0],"id":38,"left_children":[1,3,-1,5,7,-1,-1,9,11,-1,-1,-1,-1],"loss_changes":[7.6006877E-4,7.2633557E-4,0E0,2.7920475E-4,8.296716E-4,0E0,0E0,2.4418668E-3,1.3950777E-3,0E0,0E0,0E0,0E0],"parents":[2147483647,0,0,1,1,3,3,4,4,7,7,8,8],"right_children":[2,4,-1,6,8,-1,-1,10,12,-1,-1,-1,-1],"split_conditions":[1.7158169E-1,-1.9701017E-2,-5.589298E-4,-6.0852007E-3,8.7640636E-2,6.4094795E-4,1.08307744E-4,5.434787E-2,-1.0362749E-2,-1.6194492E-5,-9.605451E-4,7.7663973E-4,7.129434E-5],"split_indices":[20,30,0,2,25,0,0,2,8,0,0,0,0],"split_type":[0,0,0,0,0,0,0,0,0,0,0,0,0],"sum_hessian":[3.99E2,3.94E2,5E0,1E1,3.84E2,5E0,5E0,3.18E2,6.6E1,3.12E2,6E0,7E0,5.9E1],"tree_param":{"num_deleted":"0","num_feature":"31","num_nodes":"13","size_leaf_vector":"1"}},{"base_weights":[-7.4442387E-6,3.5583458E-3,-5.1537034E-4,-9.182922E-4,1.9513544E-2,-5.560092E-3,2.4467072E-4,3.6859026E-3,-8.837677E-3,1.3346039E-3,4.5413763E-4,-1.02227405E-2,2.260846E-3,1.1465898E-2,-6.2238774E-4,-2.557883E-4,5.240755E-4,1.8247954E-5,-6.737746E-4,-8.1085553E-4,-1.320918E-4,7.686727E-4,-2.7882893E-4,7.263704E-5,1.2883965E-3,-5.634954E-4,-1.5372491E-6],"categories":[],"categories_nodes":[],"categories_segments":[],"categories_sizes":[],"default_left":[0,0,0,0,0,0,0,0,0,0,0,0,0,0,0,0,0,0,0,0,0,0,0,0,0,0,0],"id":39,"left_children":[1,3,5,7,9,11,13,15,17,-1,-1,19,21,23,25,-1,-1,-1,-1,-1,-1,-1,-1,-1,-1,-1,-1],"loss_changes":[7.26297E-4,3.5892017E-3,1.3471631E-3,1.4910704E-3,5.812184E-4,1.7005608E-3,2.9843508E-3,1.6087509E-3,6.451197E-4,0E0,0E0,1.2749969E-3,1.9355743E-3,3.1131525E-3,1.7950188E-3,0E0,0E0,0E0,0E0,0E0,0E0,0E0,0E0,0E0,0E0,0E0,0E0],"parents":[2147483647,0,0,1,1,2,2,3,3,4,4,5,5,6,6,7,7,8,8,11,11,12,12,13,13,14,14],"right_children":[2,4,6,8,10,12,14,16,18,-1,-1,20,22,24,26,-1,-1,-1,-1,-1,-1,-1,-1,-1,-1,-1,-1],"split_conditions":[-1.2368969E-1,-1.138211E-1,-8.737864E-2,-1.0975611E-1,2.9219324E-3,3.986498E-3,-7.710849E-2,-6.5882385E-2,-2.8E-2,1.3346039E-3,4.5413763E-4,-9.263155E-2,-1.0262525E-1,-3.5398375E-2,-6.666657E-2,-2.557883E-4,5.240755E-4,1.8247954E-5,-6.737746E-4,-8.1085553E-4,-1.320918E-4,7.686727E-4,-2.7882893E-4,7.263704E-5,1.2883965E-3,-5.634954E-4,-1.5372491E-6],"split_indices":[29,25,27,18,30,30,28,5,2,0,0,25,28,21,29,0,0,0,0,0,0,0,0,0,0,0,0],"split_type":[0,0,0,0,0,0,0,0,0,0,0,0,0,0,0,0,0,0,0,0,0,0,0,0,0,0,0],"sum_hessian":[3.99E2,4.9E1,3.5E2,3.9E1,1E1,4.5E1,3.05E2,2.5E1,1.4E1,5E0,5E0,2.8E1,1.7E1,2.1E1,2.84E2,1.1E1,1.4E1,5E0,9E0,1.5E1,1.3E1,6E0,1.1E1,1.3E1,8E0,1.4E1,2.7E2],"tree_param":{"num_deleted":"0","num_feature":"31","num_nodes":"27","size_leaf_vector":"1"}},{"base_weights":[-2.7109802E-6,5.4177647E-3,-3.325211E-4,7.2098593E-4,2.1161265E-3,-4.5862054E-3,2.560735E-4,-4.1673076E-4,6.776767E-3,-1.0161268E-3,-1.585317E-2,2.2212416E-3,-1.9084578E-3,2.0255737E-5,5.354205E-4,-2.0482506E-4,4.340081E-4,-1.143091E-3,-3.1011642E-4,1.2606783E-5,4.430335E-4,-2.8997718E-4,3.192086E-5],"categories":[],"categories_nodes":[],"categories_segments":[],"categories_sizes":[],"default_left":[0,0,0,0,0,0,0,0,0,0,0,0,0,0,0,0,0,0,0,0,0,0,0],"id":40,"left_children":[1,3,5,-1,7,9,11,-1,13,15,17,19,21,-1,-1,-1,-1,-1,-1,-1,-1,-1,-1],"loss_changes":[7.168926E-4,6.5307354E-4,9.4757136E-4,0E0,9.3321025E-4,1.8341929E-3,1.4207105E-3,0E0,3.2132567E-4,1.1108135E-3,6.022365E-4,2.2856703E-3,1.5794098E-3,0E0,0E0,0E0,0E0,0E0,0E0,0E0,0E0,0E0,0E0],"parents":[2147483647,0,0,1,1,2,2,4,4,5,5,6,6,8,8,9,9,10,10,11,11,12,12],"right_children":[2,4,6,-1,8,10,12,-1,14,16,18,20,22,-1,-1,-1,-1,-1,-1,-1,-1,-1,-1],"split_conditions":[-3.0690495E-2,-1.0548527E-1,-6.5573715E-2,7.2098593E-4,-6.0975686E-2,-3.773587E-2,2.8350502E-2,-4.1673076E-4,-3.9164472E-2,-6.80851E-2,-5.787038E-2,4.405321E-3,6.0606144E-2,2.0255737E-5,5.354205E-4,-2.0482506E-4,4.340081E-4,-1.143091E-3,-3.1011642E-4,1.2606783E-5,4.430335E-4,-2.8997718E-4,3.192086E-5],"split_indices":[1,10,10,0,9,7,23,0,1,27,9,21,21,0,0,0,0,0,0,0,0,0,0],"split_type":[0,0,0,0,0,0,0,0,0,0,0,0,0,0,0,0,0,0,0,0,0,0,0],"sum_hessian":[3.99E2,2.2E1,3.77E2,5E0,1.7E1,4.5E1,3.32E2,5E0,1.2E1,3.5E1,1E1,1.74E2,1.58E2,5E0,7E0,2.7E1,8E0,5E0,5E0,1.35E2,3.9E1,6.2E1,9.6E1],"tree_param":{"num_deleted":"0","num_feature":"31","num_nodes":"23","size_leaf_vector":"1"}},{"base_weights":[-2.9917485E-6,1.4982749E-3,-1.2012987E-3,9.2471496E-4,8.8931026E-4,-7.2159474E-3,3.597976E-4,1.7938863E-3,-7.1567334E-3,-1.52744185E-2,-1.965312E-3,7.12192E-4,-1.2380963E-4,-6.4328946E-5,2.8706208E-4,-6.084037E-4,-2.0273344E-4,-1.04371415E-4,-1.0846981E-3,2.421495E-4,-2.9017616E-4,2.0709237E-4,-8.7391956E-5],"categories":[],"categories_nodes":[],"categories_segments":[],"categories_sizes":[],"default_left":[0,0,0,0,0,0,0,0,0,0,0,0,0,0,0,0,0,0,0,0,0,0,0],"id":41,"left_children":[1,3,5,7,-1,9,11,13,15,17,19,-1,21,-1,-1,-1,-1,-1,-1,-1,-1,-1,-1],"loss_changes":[7.213912E-4,1.6464472E-3,2.0964427E-3,1.2280187E-3,0E0,1.9163373E-3,1.1969309E-3,1.9164579E-3,2.149361E-4,1.4784955E-3,7.8592566E-4,0E0,1.2057058E-3,0E0,0E0,0E0,0E0,0E0,0E0,0E0,0E0,0E0,0E0],"parents":[2147483647,0,0,1,1,2,2,3,3,5,5,6,6,7,7,8,8,9,9,10,10,12,12],"right_children":[2,4,6,8,-1,10,12,14,16,18,20,-1,22,-1,-1,-1,-1,-1,-1,-1,-1,-1,-1],"split_conditions":[-1.3157841E-2,4.1564766E-2,4.098393E-3,1.6932216E-2,8.8931026E-4,3.760216E-3,-2.1276664E-2,-1.897017E-2,2.4752416E-2,-4.888001E-2,-2.9661018E-2,7.12192E-4,-4.3343726E-4,-6.4328946E-5,2.8706208E-4,-6.084037E-4,-2.0273344E-4,-1.04371415E-4,-1.0846981E-3,2.421495E-4,-2.9017616E-4,2.0709237E-4,-8.7391956E-5],"split_indices":[13,4,11,8,0,13,8,4,8,7,7,0,30,0,0,0,0,0,0,0,0,0,0],"split_type":[0,0,0,0,0,0,0,0,0,0,0,0,0,0,0,0,0,0,0,0,0,0,0],"sum_hessian":[3.99E2,1.77E2,2.22E2,1.72E2,5E0,4.5E1,1.77E2,1.56E2,1.6E1,1.7E1,2.8E1,5E0,1.72E2,8.8E1,6.8E1,5E0,1.1E1,6E0,1.1E1,1E1,1.8E1,4.7E1,1.25E2],"tree_param":{"num_deleted":"0","num_feature":"31","num_nodes":"23","size_leaf_vector":"1"}},{"base_weights":[-3.102891E-6,1.610992E-4,-5.406278E-4,-9.01612E-6,5.5958726E-4,2.8970276E-4,-9.587654E-4,2.4856683E-5,-6.4479344E-4],"categories":[],"categories_nodes":[],"categories_segments":[],"categories_sizes":[],"default_left":[0,0,0,0,0,0,0,0,0],"id":42,"left_children":[1,3,-1,5,-1,7,-1,-1,-1],"loss_changes":[7.1171584E-4,7.413113E-4,0E0,2.238435E-3,0E0,1.0594225E-3,0E0,0E0,0E0],"parents":[2147483647,0,0,1,1,3,3,5,5],"right_children":[2,4,-1,6,-1,8,-1,-1,-1],"split_conditions":[1.7158169E-1,1.3490371E-1,-5.406278E-4,9.9585086E-2,5.5958726E-4,1.00427456E-1,-9.587654E-4,2.4856683E-5,-6.4479344E-4],"split_indices":[20,11,0,8,0,9,0,0,0],"split_type":[0,0,0,0,0,0,0,0,0],"sum_hessian":[3.99E2,3.94E2,5E0,3.89E2,5E0,3.84E2,5E0,3.79E2,5E0],"tree_param":{"num_deleted":"0","num_feature":"31","num_nodes":"9","size_leaf_vector":"1"}},{"base_weights":[-6.847213E-6,5.250398E-3,-3.267144E-4,6.9616555E-4,2.0677382E-3,-4.3998323E-3,2.369197E-4,-4.0129828E-4,6.567314E-3,-9.986655E-4,-1.513094E-2,2.035434E-3,-1.7440672E-3,2.9943887E-5,5.111363E-4,-1.9806631E-4,4.1647322E-4,-1.0826678E-3,-3.04335E-4,8.35639E-6,4.1683947E-4,-3.2637763E-4,4.2696665E-6],"categories":[],"categories_nodes":[],"categories_segments":[],"categories_sizes":[],"default_left":[0,0,0,0,0,0,0,0,0,0,0,0,0,0,0,0,0,0,0,0,0,0,0],"id":43,"left_children":[1,3,5,-1,7,9,11,-1,13,15,17,19,21,-1,-1,-1,-1,-1,-1,-1,-1,-1,-1],"loss_changes":[6.743634E-4,6.060776E-4,8.688352E-4,0E0,8.70222E-4,1.6638103E-3,1.1899733E-3,0E0,2.7750008E-4,1.0278947E-3,5.170959E-4,2.0588571E-3,1.3919978E-3,0E0,0E0,0E0,0E0,0E0,0E0,0E0,0E0,0E0,0E0],"parents":[2147483647,0,0,1,1,2,2,4,4,5,5,6,6,8,8,9,9,10,10,11,11,12,12],"right_children":[2,4,6,-1,8,10,12,-1,14,16,18,20,22,-1,-1,-1,-1,-1,-1,-1,-1,-1,-1],"split_conditions":[-3.0690495E-2,-1.0841129E-1,-6.5573715E-2,6.9616555E-4,-6.0975686E-2,-3.773587E-2,2.8350502E-2,-4.0129828E-4,-3.9164472E-2,-6.80851E-2,-5.787038E-2,4.405321E-3,6.030041E-2,2.9943887E-5,5.111363E-4,-1.9806631E-4,4.1647322E-4,-1.0826678E-3,-3.04335E-4,8.35639E-6,4.1683947E-4,-3.2637763E-4,4.2696665E-6],"split_indices":[1,9,10,0,9,7,23,0,1,27,9,21,25,0,0,0,0,0,0,0,0,0,0],"split_type":[0,0,0,0,0,0,0,0,0,0,0,0,0,0,0,0,0,0,0,0,0,0,0],"sum_hessian":[3.99E2,2.2E1,3.77E2,5E0,1.7E1,4.5E1,3.32E2,5E0,1.2E1,3.5E1,1E1,1.74E2,1.58E2,5E0,7E0,2.7E1,8E0,5E0,5E0,1.35E2,3.9E1,4.3E1,1.15E2],"tree_param":{"num_deleted":"0","num_feature":"31","num_nodes":"23","size_leaf_vector":"1"}},{"base_weights":[-7.078722E-6,2.2817521E-4,-7.027959E-3,-7.294699E-5,7.7209435E-3,-7.4253784E-4,-1.4118318E-5,3.2018515E-4,-1.1014554E-2,7.697996E-4,1.1719105E-4,2.993245E-5,-8.1508886E-4,-7.8505784E-4,-1.4649956E-4],"categories":[],"categories_nodes":[],"categories_segments":[],"categories_sizes":[],"default_left":[0,0,0,0,0,0,0,0,0,0,0,0,0,0,0],"id":44,"left_children":[1,3,5,7,9,-1,-1,11,13,-1,-1,-1,-1,-1,-1],"loss_changes":[6.622795E-4,8.7598397E-4,6.818089E-4,1.6122867E-3,5.8295974E-4,0E0,0E0,1.6853177E-3,4.4655462E-4,0E0,0E0,0E0,0E0,0E0,0E0],"parents":[2147483647,0,0,1,1,2,2,3,3,4,4,7,7,8,8],"right_children":[2,4,6,8,10,-1,-1,12,14,-1,-1,-1,-1,-1,-1],"split_conditions":[1.4634143E-1,1.1956531E-1,1.350649E-1,1.0813718E-1,1.1294904E-1,-7.4253784E-4,-1.4118318E-5,7.512953E-2,1.0278387E-1,7.697996E-4,1.1719105E-4,2.993245E-5,-8.1508886E-4,-7.8505784E-4,-1.4649956E-4],"split_indices":[20,22,17,23,21,0,0,2,17,0,0,0,0,0,0],"split_type":[0,0,0,0,0,0,0,0,0,0,0,0,0,0,0],"sum_hessian":[3.99E2,3.87E2,1.2E1,3.73E2,1.4E1,5E0,7E0,3.61E2,1.2E1,5E0,9E0,3.56E2,5E0,7E0,5E0],"tree_param":{"num_deleted":"0","num_feature":"31","num_nodes":"15","size_leaf_vector":"1"}},{"base_weights":[-1.0690774E-5,3.3659425E-3,-4.9166224E-4,-8.502692E-4,1.8391628E-2,-5.394843E-3,2.4702397E-4,3.4740227E-3,-8.289024E-3,1.2525505E-3,4.3334873E-4,-9.804465E-3,2.009262E-3,1.0728672E-2,-5.629525E-4,-2.3229637E-4,4.869191E-4,1.0890918E-5,-6.2821136E-4,-7.690492E-4,-1.3654908E-4,7.1587856E-4,-2.669012E-4,6.783966E-5,1.2057539E-3,-5.4241996E-4,4.215007E-7],"categories":[],"categories_nodes":[],"categories_segments":[],"categories_sizes":[],"default_left":[0,0,0,0,0,0,0,0,0,0,0,0,0,0,0,0,0,0,0,0,0,0,0,0,0,0,0],"id":45,"left_children":[1,3,5,7,9,11,13,15,17,-1,-1,19,21,23,25,-1,-1,-1,-1,-1,-1,-1,-1,-1,-1,-1,-1],"loss_changes":[6.512806E-4,3.1832112E-3,1.2726237E-3,1.3154902E-3,4.952457E-4,1.5215682E-3,2.6039453E-3,1.3677671E-3,5.482639E-4,0E0,0E0,1.1019118E-3,1.7042154E-3,2.7273074E-3,1.6750147E-3,0E0,0E0,0E0,0E0,0E0,0E0,0E0,0E0,0E0,0E0,0E0,0E0],"parents":[2147483647,0,0,1,1,2,2,3,3,4,4,5,5,6,6,7,7,8,8,11,11,12,12,13,13,14,14],"right_children":[2,4,6,8,10,12,14,16,18,-1,-1,20,22,24,26,-1,-1,-1,-1,-1,-1,-1,-1,-1,-1,-1,-1],"split_conditions":[-1.2368969E-1,-1.138211E-1,-8.737864E-2,-1.0975611E-1,2.9219324E-3,3.986498E-3,-7.710849E-2,-6.5882385E-2,-2.8E-2,1.2525505E-3,4.3334873E-4,-9.263155E-2,-1.0262525E-1,-3.5398375E-2,-6.666657E-2,-2.3229637E-4,4.869191E-4,1.0890918E-5,-6.2821136E-4,-7.690492E-4,-1.3654908E-4,7.1587856E-4,-2.669012E-4,6.783966E-5,1.2057539E-3,-5.4241996E-4,4.215007E-7],"split_indices":[29,25,27,18,30,30,28,5,2,0,0,25,28,21,29,0,0,0,0,0,0,0,0,0,0,0,0],"split_type":[0,0,0,0,0,0,0,0,0,0,0,0,0,0,0,0,0,0,0,0,0,0,0,0,0,0,0],"sum_hessian":[3.99E2,4.9E1,3.5E2,3.9E1,1E1,4.5E1,3.05E2,2.5E1,1.4E1,5E0,5E0,2.8E1,1.7E1,2.1E1,2.84E2,1.1E1,1.4E1,5E0,9E0,1.5E1,1.3E1,6E0,1.1E1,1.3E1,8E0,1.4E1,2.7E2],"tree_param":{"num_deleted":"0","num_feature":"31","num_nodes":"27","size_leaf_vector":"1"}},{"base_weights":[-6.1607407E-6,1.4919582E-4,-5.1163876E-4,-1.3896164E-5,5.362655E-4,2.682128E-4,-9.056786E-4,2.3114237E-5,-6.033855E-4],"categories":[],"categories_nodes":[],"categories_segments":[],"categories_sizes":[],"default_left":[0,0,0,0,0,0,0,0,0],"id":46,"left_children":[1,3,-1,5,-1,7,-1,-1,-1],"loss_changes":[6.3703523E-4,6.814763E-4,0E0,1.9962299E-3,0E0,9.272903E-4,0E0,0E0,0E0],"parents":[2147483647,0,0,1,1,3,3,5,5],"right_children":[2,4,-1,6,-1,8,-1,-1,-1],"split_conditions":[1.7158169E-1,1.3490371E-1,-5.1163876E-4,9.9585086E-2,5.362655E-4,1.00427456E-1,-9.056786E-4,2.3114237E-5,-6.033855E-4],"split_indices":[20,11,0,8,0,9,0,0,0],"split_type":[0,0,0,0,0,0,0,0,0],"sum_hessian":[3.99E2,3.94E2,5E0,3.89E2,5E0,3.84E2,5E0,3.79E2,5E0],"tree_param":{"num_deleted":"0","num_feature":"31","num_nodes":"9","size_leaf_vector":"1"}},{"base_weights":[-9.506044E-6,3.9018176E-3,-4.0705953E-4,-1.6284946E-3,1.5559009E-2,-2.804234E-3,4.2593476E-4,3.9892533E-4,-6.3415235E-3,1.4105459E-3,1.2459008E-4,-1.6692901E-3,-8.335747E-4,8.109959E-3,-7.480093E-4,-6.054092E-4,1.1901624E-4,-1.846653E-4,1.7894812E-4,4.012679E-5,7.30297E-4,-4.2397666E-4,8.362763E-6],"categories":[],"categories_nodes":[],"categories_segments":[],"categories_sizes":[],"default_left":[0,0,0,0,0,0,0,0,0,0,0,0,0,0,0,0,0,0,0,0,0,0,0],"id":47,"left_children":[1,3,5,7,9,11,13,-1,15,-1,-1,17,-1,19,21,-1,-1,-1,-1,-1,-1,-1,-1],"loss_changes":[6.2357244E-4,2.4106505E-3,7.280415E-4,1.2278259E-3,1.913605E-3,1.451595E-3,2.4506527E-3,0E0,9.3414827E-4,0E0,0E0,9.480024E-4,0E0,1.6971582E-3,1.671446E-3,0E0,0E0,0E0,0E0,0E0,0E0,0E0,0E0],"parents":[2147483647,0,0,1,1,2,2,3,3,4,4,5,5,6,6,8,8,11,11,13,13,14,14],"right_children":[2,4,6,8,10,12,14,-1,16,-1,-1,18,-1,20,22,-1,-1,-1,-1,-1,-1,-1,-1],"split_conditions":[-3.4090895E-2,-3.137252E-2,-5.3333286E-2,-7.766993E-2,-4.7034677E-2,-2.696078E-2,-2.8795807E-2,3.9892533E-4,-2.066271E-3,1.4105459E-3,1.2459008E-4,1.02039445E-2,-8.335747E-4,-4.0609166E-2,-1.0446451E-2,-6.054092E-4,1.1901624E-4,-1.846653E-4,1.7894812E-4,4.012679E-5,7.30297E-4,-4.2397666E-4,8.362763E-6],"split_indices":[2,3,16,5,15,23,15,0,26,0,0,3,0,17,15,0,0,0,0,0,0,0,0],"split_type":[0,0,0,0,0,0,0,0,0,0,0,0,0,0,0,0,0,0,0,0,0,0,0],"sum_hessian":[3.99E2,3.6E1,3.63E2,2.5E1,1.1E1,9.3E1,2.7E2,8E0,1.7E1,5E0,6E0,8.7E1,6E0,3.5E1,2.35E2,1E1,7E0,6.3E1,2.4E1,1.7E1,1.8E1,2.4E1,2.11E2],"tree_param":{"num_deleted":"0","num_feature":"31","num_nodes":"23","size_leaf_vector":"1"}},{"base_weights":[-6.622769E-6,2.8644986E-3,-5.317051E-4,-4.723454E-4,9.4017815E-3,-9.611095E-3,1.2872923E-4,2.4457804E-3,-5.721947E-4,1.2156855E-3,1.8160962E-3,-1.3928128E-2,1.1217923E-5,3.563808E-3,-9.882078E-4,-3.3887895E-4,3.285623E-4,-3.1471776E-4,3.9612185E-4,-3.3076826E-4,-8.827125E-4,1.0590901E-4,8.962005E-4,-3.9267392E-4,9.15094E-6],"categories":[],"categories_nodes":[],"categories_segments":[],"categories_sizes":[],"default_left":[0,0,0,0,0,0,0,0,0,0,0,0,0,0,0,0,0,0,0,0,0,0,0,0,0],"id":48,"left_children":[1,3,5,7,9,11,13,15,-1,-1,17,19,-1,21,23,-1,-1,-1,-1,-1,-1,-1,-1,-1,-1],"loss_changes":[6.045531E-4,1.3569023E-3,2.0339969E-3,1.3726765E-3,2.3313055E-3,9.797045E-4,1.2197768E-3,1.3382593E-3,0E0,0E0,7.927443E-4,3.1918264E-4,0E0,1.5812757E-3,1.9312263E-3,0E0,0E0,0E0,0E0,0E0,0E0,0E0,0E0,0E0,0E0],"parents":[2147483647,0,0,1,1,2,2,3,3,4,4,5,5,6,6,7,7,10,10,11,11,13,13,14,14],"right_children":[2,4,6,8,10,12,14,16,-1,-1,18,20,-1,22,24,-1,-1,-1,-1,-1,-1,-1,-1,-1,-1],"split_conditions":[-7.6305285E-2,-8.80502E-2,-6.279064E-2,-8.76068E-2,-7.84313E-2,-4.999998E-2,-2.092057E-2,-4.824569E-2,-5.721947E-4,1.2156855E-3,-5.8536567E-2,-5.10639E-2,1.1217923E-5,2.8985547E-2,-4.2755287E-2,-3.3887895E-4,3.285623E-4,-3.1471776E-4,3.9612185E-4,-3.3076826E-4,-8.827125E-4,1.0590901E-4,8.962005E-4,-3.9267392E-4,9.15094E-6],"split_indices":[14,27,14,18,25,12,13,3,0,0,26,6,0,9,26,0,0,0,0,0,0,0,0,0,0],"split_type":[0,0,0,0,0,0,0,0,0,0,0,0,0,0,0,0,0,0,0,0,0,0,0,0,0],"sum_hessian":[3.99E2,6.1E1,3.38E2,4.1E1,2E1,2.2E1,3.16E2,3.3E1,8E0,6E0,1.4E1,1.5E1,7E0,7.7E1,2.39E2,1E1,2.3E1,6E0,8E0,6E0,9E0,7.1E1,6E0,3.4E1,2.05E2],"tree_param":{"num_deleted":"0","num_feature":"31","num_nodes":"25","size_leaf_vector":"1"}},{"base_weights":[-5.964347E-6,7.5942936E-4,-1.9566494E-3,4.1717986E-4,6.343007E-4,-4.5042303E-3,2.4572192E-3,9.90619E-4,-6.7297146E-3,-1.485761E-3,-1.2845974E-2,7.854123E-3,-1.1660337E-3,2.2935694E-5,7.1477826E-4,-5.5160467E-4,2.9324577E-4,-2.4864613E-4,4.947371E-4,-2.9664708E-4,-7.790112E-4,3.1018284E-5,6.427858E-4,3.618124E-4,-2.321233E-4],"categories":[],"categories_nodes":[],"categories_segments":[],"categories_sizes":[],"default_left":[0,0,0,0,0,0,0,0,0,0,0,0,0,0,0,0,0,0,0,0,0,0,0,0,0],"id":49,"left_children":[1,3,5,7,-1,9,11,13,15,17,19,21,23,-1,-1,-1,-1,-1,-1,-1,-1,-1,-1,-1,-1],"loss_changes":[5.987028E-4,1.1702855E-3,1.2817176E-3,1.1582914E-3,0E0,1.7938234E-3,8.304407E-4,1.8405314E-3,1.2026265E-3,2.1922314E-3,2.6670052E-4,6.0708995E-4,7.930531E-4,0E0,0E0,0E0,0E0,0E0,0E0,0E0,0E0,0E0,0E0,0E0,0E0],"parents":[2147483647,0,0,1,1,2,2,3,3,5,5,6,6,7,7,8,8,9,9,10,10,11,11,12,12],"right_children":[2,4,6,8,-1,10,12,14,16,18,20,22,24,-1,-1,-1,-1,-1,-1,-1,-1,-1,-1,-1,-1],"split_conditions":[1.322749E-2,6.0606036E-2,5.9895843E-2,5.1351357E-2,6.343007E-4,4.0000014E-2,8.128585E-2,3.3816453E-2,1.1751142E-1,5.162184E-3,2.9712658E-2,1.4492719E-2,8.178055E-2,2.2935694E-5,7.1477826E-4,-5.5160467E-4,2.9324577E-4,-2.4864613E-4,4.947371E-4,-2.9664708E-4,-7.790112E-4,3.1018284E-5,6.427858E-4,3.618124E-4,-2.321233E-4],"split_indices":[2,6,17,8,0,19,21,4,26,19,17,1,15,0,0,0,0,0,0,0,0,0,0,0,0],"split_type":[0,0,0,0,0,0,0,0,0,0,0,0,0,0,0,0,0,0,0,0,0,0,0,0,0],"sum_hessian":[3.99E2,2.87E2,1.12E2,2.8E2,7E0,7.1E1,4.1E1,2.6E2,2E1,5.3E1,1.8E1,1.6E1,2.5E1,2.51E2,9E0,1.5E1,5E0,4.1E1,1.2E1,6E0,1.2E1,7E0,9E0,7E0,1.8E1],"tree_param":{"num_deleted":"0","num_feature":"31","num_nodes":"25","size_leaf_vector":"1"}},{"base_weights":[-2.9471992E-6,4.1190028E-4,-3.4567253E-3,-6.382311E-6,8.31634E-4,-1.1231882E-2,6.841048E-4,-6.230638E-4,4.082623E-3,-1.1999612E-4,-7.7039347E-4,3.686419E-4,-2.694467E-3,-1.1872992E-5,-9.89971E-4,5.34167E-4,-2.7112168E-5,-4.2919847E-4,5.6855446E-5],"categories":[],"categories_nodes":[],"categories_segments":[],"categories_sizes":[],"default_left":[0,0,0,0,0,0,0,0,0,0,0,0,0,0,0,0,0,0,0],"id":50,"left_children":[1,3,5,7,-1,9,11,13,15,-1,-1,-1,17,-1,-1,-1,-1,-1,-1],"loss_changes":[5.745403E-4,2.4290893E-3,1.3920945E-3,8.8510854E-4,0E0,5.1625434E-4,6.7521847E-4,2.250614E-3,1.4100552E-3,0E0,0E0,0E0,4.6108247E-4,0E0,0E0,0E0,0E0,0E0,0E0],"parents":[2147483647,0,0,1,1,2,2,3,3,5,5,6,6,7,7,8,8,12,12],"right_children":[2,4,6,8,-1,10,12,14,16,-1,-1,-1,18,-1,-1,-1,-1,-1,-1],"split_conditions":[1.0091718E-1,9.743045E-2,8.80829E-2,5.9895843E-2,8.31634E-4,5.150226E-2,1.2020985E-1,4.377871E-2,7.009345E-2,-1.1999612E-4,-7.7039347E-4,3.686419E-4,1.18012354E-1,-1.1872992E-5,-9.89971E-4,5.34167E-4,-2.7112168E-5,-4.2919847E-4,5.6855446E-5],"split_indices":[20,21,16,17,0,14,21,1,18,0,0,0,23,0,0,0,0,0,0],"split_type":[0,0,0,0,0,0,0,0,0,0,0,0,0,0,0,0,0,0,0],"sum_hessian":[3.99E2,3.57E2,4.2E1,3.49E2,8E0,1.4E1,2.8E1,3.04E2,4.5E1,5E0,9E0,9E0,1.9E1,2.99E2,5E0,1.8E1,2.7E1,7E0,1.2E1],"tree_param":{"num_deleted":"0","num_feature":"31","num_nodes":"19","size_leaf_vector":"1"}},{"base_weights":[-4.192894E-6,7.0498143E-3,-2.0314132E-4,5.441884E-4,1.0204457E-4,3.1319933E-3,-6.915683E-4,1.0124614E-4,1.0867489E-3,-5.117154E-3,-5.279987E-5,-1.38167E-4,3.9852105E-4,-3.150308E-5,-4.8939575E-4,7.904055E-4,-2.1577462E-5],"categories":[],"categories_nodes":[],"categories_segments":[],"categories_sizes":[],"default_left":[0,0,0,0,0,0,0,0,0,0,0,0,0,0,0,0,0],"id":51,"left_children":[1,3,5,-1,-1,7,9,11,-1,13,15,-1,-1,-1,-1,-1,-1],"loss_changes":[5.6278554E-4,1.8903113E-4,6.3746417E-4,0E0,0E0,2.8168464E-3,9.6371106E-4,1.0138699E-3,0E0,8.9503266E-4,1.8030074E-3,0E0,0E0,0E0,0E0,0E0,0E0],"parents":[2147483647,0,0,1,1,2,2,5,5,6,6,7,7,9,9,10,10],"right_children":[2,4,6,-1,-1,8,10,12,-1,14,16,-1,-1,-1,-1,-1,-1],"split_conditions":[-1.9701017E-2,-6.0852007E-3,-1.2368969E-1,5.441884E-4,1.0204457E-4,-9.8039225E-2,-7.142863E-2,-1.4418603E-1,1.0867489E-3,-9.532702E-2,-7.981222E-2,-1.38167E-4,3.9852105E-4,-3.150308E-5,-4.8939575E-4,7.904055E-4,-2.1577462E-5],"split_indices":[30,2,29,0,0,22,18,29,0,19,12,0,0,0,0,0,0],"split_type":[0,0,0,0,0,0,0,0,0,0,0,0,0,0,0,0,0],"sum_hessian":[3.99E2,1E1,3.89E2,5E0,5E0,4.9E1,3.4E2,4.3E1,6E0,4.2E1,2.98E2,3.2E1,1.1E1,2.2E1,2E1,6E0,2.92E2],"tree_param":{"num_deleted":"0","num_feature":"31","num_nodes":"17","size_leaf_vector":"1"}},{"base_weights":[1.6198406E-6,4.3818075E-4,-3.1345242E-3,-3.8932633E-4,4.1680457E-3,-5.2658822E-3,2.8521803E-4,2.2566642E-4,-8.672262E-3,1.3576126E-2,1.9149022E-4,-1.4004993E-2,-5.3945876E-4,3.000912E-5,-5.3509924E-4,-1.3735541E-4,-7.1613526E-4,1.4691411E-3,2.916052E-4,-3.7639157E-4,2.2796949E-4,-2.7559817E-4,-1.2205187E-3,1.4018669E-4,-6.353961E-4],"categories":[],"categories_nodes":[],"categories_segments":[],"categories_sizes":[],"default_left":[0,0,0,0,0,0,0,0,0,0,0,0,0,0,0,0,0,0,0,0,0,0,0,0,0],"id":52,"left_children":[1,3,5,7,9,11,-1,13,15,17,19,21,23,-1,-1,-1,-1,-1,-1,-1,-1,-1,-1,-1,-1],"loss_changes":[5.4902065E-4,1.0880672E-3,9.5314125E-4,1.4741071E-3,2.3917528E-3,1.6446344E-3,0E0,1.1114196E-3,6.302488E-4,2.1543768E-3,1.5853144E-3,1.1026759E-3,1.1340304E-3,0E0,0E0,0E0,0E0,0E0,0E0,0E0,0E0,0E0,0E0,0E0,0E0],"parents":[2147483647,0,0,1,1,2,2,3,3,4,4,5,5,7,7,8,8,9,9,10,10,11,11,12,12],"right_children":[2,4,6,8,10,12,-1,14,16,18,20,22,24,-1,-1,-1,-1,-1,-1,-1,-1,-1,-1,-1,-1],"split_conditions":[4.4600945E-2,4.1131116E-2,3.6951266E-3,3.9215706E-2,4.891308E-2,2.9411754E-2,2.8521803E-4,3.30189E-2,2.5741378E-2,1.0988985E-2,8.333499E-3,7.123286E-2,1.0029444E-3,3.000912E-5,-5.3509924E-4,-1.3735541E-4,-7.1613526E-4,1.4691411E-3,2.916052E-4,-3.7639157E-4,2.2796949E-4,-2.7559817E-4,-1.2205187E-3,1.4018669E-4,-6.353961E-4],"split_indices":[5,11,30,8,11,3,0,1,25,25,4,13,30,0,0,0,0,0,0,0,0,0,0,0,0],"split_type":[0,0,0,0,0,0,0,0,0,0,0,0,0,0,0,0,0,0,0,0,0,0,0,0,0],"sum_hessian":[3.99E2,3.51E2,4.8E1,2.88E2,6.3E1,3.9E1,9E0,2.69E2,1.9E1,1.8E1,4.5E1,1.3E1,2.6E1,2.61E2,8E0,1E1,9E0,5E0,1.3E1,1.6E1,2.9E1,8E0,5E0,2.1E1,5E0],"tree_param":{"num_deleted":"0","num_feature":"31","num_nodes":"25","size_leaf_vector":"1"}},{"base_weights":[-2.0919892E-6,2.7053605E-3,-4.9725414E-4,-1.57191E-3,7.3201796E-3,-9.08771E-3,1.2759675E-4,3.5843038E-4,-4.65562E-3,-2.1596048E-4,1.3095814E-2,-1.3260211E-2,1.9662824E-5,3.7239804E-3,-8.5113E-4,1.5313027E-4,-4.2339397E-4,4.5023588E-4,-3.169542E-4,1.1353297E-3,2.0488036E-4,-3.0790127E-4,-8.45286E-4,-1.9341975E-5,5.638301E-4,-4.1308563E-4,7.934136E-6],"categories":[],"categories_nodes":[],"categories_segments":[],"categories_sizes":[],"default_left":[0,0,0,0,0,0,0,0,0,0,0,0,0,0,0,0,0,0,0,0,0,0,0,0,0,0,0],"id":53,"left_children":[1,3,5,7,9,11,13,-1,15,17,19,21,-1,23,25,-1,-1,-1,-1,-1,-1,-1,-1,-1,-1,-1,-1],"loss_changes":[5.375964E-4,1.2353141E-3,1.820828E-3,9.2283054E-4,1.3086076E-3,9.150797E-4,1.1189706E-3,0E0,7.615308E-4,8.4751257E-4,1.3771139E-3,3.1015114E-4,0E0,2.1155898E-3,1.8721361E-3,0E0,0E0,0E0,0E0,0E0,0E0,0E0,0E0,0E0,0E0,0E0,0E0],"parents":[2147483647,0,0,1,1,2,2,3,3,4,4,5,5,6,6,8,8,9,9,10,10,11,11,13,13,14,14],"right_children":[2,4,6,8,10,12,14,-1,16,18,20,22,-1,24,26,-1,-1,-1,-1,-1,-1,-1,-1,-1,-1,-1,-1],"split_conditions":[-7.6305285E-2,-9.582313E-2,-6.279064E-2,-6.0606044E-2,-8.809527E-2,-4.999998E-2,-2.8795807E-2,3.5843038E-4,-1.9823015E-1,-7.430998E-2,-7.751201E-2,-5.10639E-2,1.9662824E-5,-3.87756E-2,-1.0446451E-2,1.5313027E-4,-4.2339397E-4,4.5023588E-4,-3.169542E-4,1.1353297E-3,2.0488036E-4,-3.0790127E-4,-8.45286E-4,-1.9341975E-5,5.638301E-4,-4.1308563E-4,7.934136E-6],"split_indices":[14,14,14,4,15,12,15,0,26,10,15,6,0,17,15,0,0,0,0,0,0,0,0,0,0,0,0],"split_type":[0,0,0,0,0,0,0,0,0,0,0,0,0,0,0,0,0,0,0,0,0,0,0,0,0,0,0],"sum_hessian":[3.99E2,6.1E1,3.38E2,3.2E1,2.9E1,2.2E1,3.16E2,8E0,2.4E1,1.3E1,1.6E1,1.5E1,7E0,6.7E1,2.49E2,8E0,1.6E1,5E0,8E0,7E0,9E0,6E0,9E0,4.4E1,2.3E1,2.9E1,2.2E2],"tree_param":{"num_deleted":"0","num_feature":"31","num_nodes":"27","size_leaf_vector":"1"}},{"base_weights":[-5.686831E-7,1.40451E-4,-4.6421346E-4,-4.0801204E-4,2.8315538E-3,-6.202014E-5,-8.157389E-4,6.7027844E-4,1.1705759E-3,1.4767635E-5,-6.2815886E-4,-2.676737E-5,6.959814E-4],"categories":[],"categories_nodes":[],"categories_segments":[],"categories_sizes":[],"default_left":[0,0,0,0,0,0,0,0,0,0,0,0,0],"id":54,"left_children":[1,3,-1,5,7,9,-1,-1,11,-1,-1,-1,-1],"loss_changes":[5.249778E-4,5.841635E-4,0E0,1.8096765E-3,1.1610426E-3,1.446737E-3,0E0,0E0,1.2906372E-3,0E0,0E0,0E0,0E0],"parents":[2147483647,0,0,1,1,3,3,4,4,5,5,8,8],"right_children":[2,4,-1,6,8,10,-1,-1,12,-1,-1,-1,-1],"split_conditions":[1.7158169E-1,8.7640636E-2,-4.6421346E-4,5.434787E-2,8.32539E-2,8.421056E-2,-8.157389E-4,6.7027844E-4,7.69231E-2,1.4767635E-5,-6.2815886E-4,-2.676737E-5,6.959814E-4],"split_indices":[20,25,0,2,27,25,0,0,7,0,0,0,0],"split_type":[0,0,0,0,0,0,0,0,0,0,0,0,0],"sum_hessian":[3.99E2,3.94E2,5E0,3.28E2,6.6E1,3.22E2,6E0,8E0,5.8E1,3.14E2,8E0,5.2E1,6E0],"tree_param":{"num_deleted":"0","num_feature":"31","num_nodes":"13","size_leaf_vector":"1"}},{"base_weights":[-1.9249183E-6,3.5466217E-3,-3.6262354E-4,-1.5846991E-3,1.4368932E-2,3.8570587E-3,-7.809576E-4,3.4613494E-4,-5.750359E-3,1.2992498E-3,1.17979966E-4,1.1474249E-2,-1.0420143E-3,-3.632345E-3,-9.9657336E-5,-5.5011275E-4,1.094896E-4,1.9919848E-4,9.774457E-4,-4.0868256E-4,1.9877139E-4,-2.803548E-4,1.9104216E-4,2.6808248E-4,-4.29836E-5],"categories":[],"categories_nodes":[],"categories_segments":[],"categories_sizes":[],"default_left":[0,0,0,0,0,0,0,0,0,0,0,0,0,0,0,0,0,0,0,0,0,0,0,0,0],"id":55,"left_children":[1,3,5,7,9,11,13,-1,15,-1,-1,17,19,21,23,-1,-1,-1,-1,-1,-1,-1,-1,-1,-1],"loss_changes":[5.132685E-4,2.0774822E-3,6.4555835E-4,9.6122E-4,1.6127003E-3,1.243423E-3,6.4459816E-4,0E0,7.747078E-4,0E0,0E0,7.083771E-4,7.8392774E-4,9.63388E-4,1.1211403E-3,0E0,0E0,0E0,0E0,0E0,0E0,0E0,0E0,0E0,0E0],"parents":[2147483647,0,0,1,1,2,2,3,3,4,4,5,5,6,6,8,8,11,11,12,12,13,13,14,14],"right_children":[2,4,6,8,10,12,14,-1,16,-1,-1,18,20,22,24,-1,-1,-1,-1,-1,-1,-1,-1,-1,-1],"split_conditions":[-3.4090895E-2,-3.137252E-2,-4.9216016E-3,-7.766993E-2,-4.7034677E-2,2.7659534E-2,-2.736844E-2,3.4613494E-4,-2.066271E-3,1.2992498E-3,1.17979966E-4,-4.541067E-2,4.90195E-3,1.4423076E-2,-5.567438E-2,-5.5011275E-4,1.094896E-4,1.9919848E-4,9.774457E-4,-4.0868256E-4,1.9877139E-4,-2.803548E-4,1.9104216E-4,2.6808248E-4,-4.29836E-5],"split_indices":[2,3,30,5,15,16,4,0,26,0,0,25,6,15,12,0,0,0,0,0,0,0,0,0,0],"split_type":[0,0,0,0,0,0,0,0,0,0,0,0,0,0,0,0,0,0,0,0,0,0,0,0,0],"sum_hessian":[3.99E2,3.6E1,3.63E2,2.5E1,1.1E1,3.2E1,3.31E2,8E0,1.7E1,5E0,6E0,1.2E1,2E1,6.3E1,2.68E2,1E1,7E0,7E0,5E0,8E0,1.2E1,5E1,1.3E1,3.2E1,2.36E2],"tree_param":{"num_deleted":"0","num_feature":"31","num_nodes":"25","size_leaf_vector":"1"}},{"base_weights":[4.23451E-6,4.2404555E-4,-3.0116374E-3,-3.5921825E-4,3.9543454E-3,-5.010911E-3,2.6433097E-4,2.2644E-4,-8.247644E-3,1.0135277E-2,-1.4565774E-3,-1.33501245E-2,-5.0128443E-4,2.8643693E-5,-4.9418974E-4,-1.3171577E-4,-6.7987706E-4,9.302351E-4,1.2821319E-4,-2.6878444E-4,2.7946394E-4,-2.6182082E-4,-1.1647834E-3,1.3210028E-4,-5.971567E-4],"categories":[],"categories_nodes":[],"categories_segments":[],"categories_sizes":[],"default_left":[0,0,0,0,0,0,0,0,0,0,0,0,0,0,0,0,0,0,0,0,0,0,0,0,0],"id":56,"left_children":[1,3,5,7,9,11,-1,13,15,17,19,21,23,-1,-1,-1,-1,-1,-1,-1,-1,-1,-1,-1,-1],"loss_changes":[5.077156E-4,9.747554E-4,8.394243E-4,1.3370248E-3,2.1552138E-3,1.4975774E-3,0E0,9.5134455E-4,5.647943E-4,1.8759558E-3,9.965184E-4,1.0077471E-3,1.0026101E-3,0E0,0E0,0E0,0E0,0E0,0E0,0E0,0E0,0E0,0E0,0E0,0E0],"parents":[2147483647,0,0,1,1,2,2,3,3,4,4,5,5,7,7,8,8,9,9,10,10,11,11,12,12],"right_children":[2,4,6,8,10,12,-1,14,16,18,20,22,24,-1,-1,-1,-1,-1,-1,-1,-1,-1,-1,-1,-1],"split_conditions":[4.4600945E-2,4.1131116E-2,3.6951266E-3,3.9215706E-2,7.615551E-2,2.9411754E-2,2.6433097E-4,3.30189E-2,2.5741378E-2,4.891308E-2,4.7516122E-2,7.123286E-2,1.20000035E-1,2.8643693E-5,-4.9418974E-4,-1.3171577E-4,-6.7987706E-4,9.302351E-4,1.2821319E-4,-2.6878444E-4,2.7946394E-4,-2.6182082E-4,-1.1647834E-3,1.3210028E-4,-5.971567E-4],"split_indices":[5,11,30,8,20,3,0,1,25,11,7,13,12,0,0,0,0,0,0,0,0,0,0,0,0],"split_type":[0,0,0,0,0,0,0,0,0,0,0,0,0,0,0,0,0,0,0,0,0,0,0,0,0],"sum_hessian":[3.99E2,3.51E2,4.8E1,2.88E2,6.3E1,3.9E1,9E0,2.69E2,1.9E1,2.9E1,3.4E1,1.3E1,2.6E1,2.61E2,8E0,1E1,9E0,1.3E1,1.6E1,2.2E1,1.2E1,8E0,5E0,2.1E1,5E0],"tree_param":{"num_deleted":"0","num_feature":"31","num_nodes":"25","size_leaf_vector":"1"}},{"base_weights":[-5.6559924E-7,1.225512E-3,-9.792258E-4,9.176795E-5,7.2958632E-3,-6.512973E-3,4.563448E-4,1.1049733E-3,-7.959672E-3,1.1073453E-3,3.104467E-3,-1.3867813E-2,-1.723314E-3,-7.856082E-3,1.158876E-3,-3.910555E-5,3.4807398E-4,-1.596062E-4,-6.462075E-4,3.0922264E-4,-1.7217813E-4,-3.71264E-4,-1.2757668E-3,-2.075233E-4,3.2489005E-4,1.8408004E-4,-7.337487E-4,1.6950202E-4,-1.0776079E-4],"categories":[],"categories_nodes":[],"categories_segments":[],"categories_sizes":[],"default_left":[0,0,0,0,0,0,0,0,0,0,0,0,0,0,0,0,0,0,0,0,0,0,0,0,0,0,0,0,0],"id":57,"left_children":[1,3,5,7,9,11,13,15,17,-1,19,21,23,25,27,-1,-1,-1,-1,-1,-1,-1,-1,-1,-1,-1,-1,-1,-1],"loss_changes":[4.8116545E-4,1.2243665E-3,1.7745029E-3,1.2406174E-3,1.6741505E-3,1.5965516E-3,1.0485778E-3,1.4974271E-3,3.6110706E-4,0E0,4.8515678E-4,1.1612535E-3,6.0563185E-4,1.1554663E-3,1.2273629E-3,0E0,0E0,0E0,0E0,0E0,0E0,0E0,0E0,0E0,0E0,0E0,0E0,0E0,0E0],"parents":[2147483647,0,0,1,1,2,2,3,3,4,4,5,5,6,6,7,7,8,8,10,10,11,11,12,12,13,13,14,14],"right_children":[2,4,6,8,10,12,14,16,18,-1,20,22,24,26,28,-1,-1,-1,-1,-1,-1,-1,-1,-1,-1,-1,-1,-1,-1],"split_conditions":[-1.3157841E-2,-2.1926226E-2,4.098393E-3,-2.549016E-2,-1.0170988E-1,3.760216E-3,-6.403298E-2,-4.4660326E-2,-2.0242196E-3,1.1073453E-3,6.981976E-2,1.1764685E-2,6.0526337E-2,-3.274558E-2,5.5164818E-2,-3.910555E-5,3.4807398E-4,-1.596062E-4,-6.462075E-4,3.0922264E-4,-1.7217813E-4,-3.71264E-4,-1.2757668E-3,-2.075233E-4,3.2489005E-4,1.8408004E-4,-7.337487E-4,1.6950202E-4,-1.0776079E-4],"split_indices":[13,14,11,15,28,13,27,13,5,0,29,4,21,17,10,0,0,0,0,0,0,0,0,0,0,0,0,0,0],"split_type":[0,0,0,0,0,0,0,0,0,0,0,0,0,0,0,0,0,0,0,0,0,0,0,0,0,0,0,0,0],"sum_hessian":[3.99E2,1.77E2,2.22E2,1.5E2,2.7E1,4.5E1,1.77E2,1.34E2,1.6E1,5E0,2.2E1,1.7E1,2.8E1,1.3E1,1.64E2,1.02E2,3.2E1,9E0,7E0,1.5E1,7E0,1.2E1,5E0,2.2E1,6E0,5E0,8E0,9.8E1,6.6E1],"tree_param":{"num_deleted":"0","num_feature":"31","num_nodes":"29","size_leaf_vector":"1"}},{"base_weights":[-3.7124232E-6,4.447564E-3,-2.7454746E-4,6.0357316E-4,1.6591776E-3,-5.262028E-4,-8.094236E-5,-3.0536085E-4,6.0513094E-3,5.912822E-4,-3.751136E-4,3.109009E-5,4.9203506E-4,-2.4739813E-4,5.5511136E-6],"categories":[],"categories_nodes":[],"categories_segments":[],"categories_sizes":[],"default_left":[0,0,0,0,0,0,0,0,0,0,0,0,0,0,0],"id":58,"left_children":[1,3,5,-1,7,-1,9,-1,11,-1,13,-1,-1,-1,-1],"loss_changes":[4.8344576E-4,4.6891402E-4,7.4923516E-4,0E0,6.509552E-4,0E0,1.307394E-3,0E0,2.4077538E-4,0E0,8.0973085E-4,0E0,0E0,0E0,0E0],"parents":[2147483647,0,0,1,1,2,2,4,4,6,6,8,8,10,10],"right_children":[2,4,6,-1,8,-1,10,-1,12,-1,14,-1,-1,-1,-1],"split_conditions":[-3.0690495E-2,-1.0548527E-1,-1.4844443E-1,6.0357316E-4,-5.973465E-2,-5.262028E-4,-1.1428574E-1,-3.0536085E-4,-3.9164472E-2,5.912822E-4,-6.5573715E-2,3.109009E-5,4.9203506E-4,-2.4739813E-4,5.5511136E-6],"split_indices":[1,10,16,0,9,0,13,0,1,0,10,0,0,0,0],"split_type":[0,0,0,0,0,0,0,0,0,0,0,0,0,0,0],"sum_hessian":[3.99E2,2.2E1,3.77E2,5E0,1.7E1,6E0,3.71E2,6E0,1.1E1,8E0,3.63E2,5E0,6E0,3.4E1,3.29E2],"tree_param":{"num_deleted":"0","num_feature":"31","num_nodes":"15","size_leaf_vector":"1"}},{"base_weights":[-1.9153135E-6,-1.7562084E-4,3.3950811E-4,6.6760396E-5,-7.869772E-4,4.875011E-4,-4.9422793E-3,9.724964E-6,5.897647E-4,-6.831815E-4,-5.749025E-5],"categories":[],"categories_nodes":[],"categories_segments":[],"categories_sizes":[],"default_left":[0,0,0,0,0,0,0,0,0,0,0],"id":59,"left_children":[1,3,-1,5,-1,7,9,-1,-1,-1,-1],"loss_changes":[4.73121E-4,1.4760602E-3,0E0,8.15907E-4,0E0,1.1805196E-3,9.765544E-4,0E0,0E0,0E0,0E0],"parents":[2147483647,0,0,1,1,3,3,5,5,6,6],"right_children":[2,4,-1,6,-1,8,10,-1,-1,-1,-1],"split_conditions":[1.11872144E-1,9.9585086E-2,3.3950811E-4,1.0878657E-1,-7.869772E-4,1.0995863E-1,8.000016E-2,9.724964E-6,5.897647E-4,-6.831815E-4,-5.749025E-5],"split_indices":[10,8,0,23,0,24,16,0,0,0,0],"split_type":[0,0,0,0,0,0,0,0,0,0,0],"sum_hessian":[3.99E2,3.9E2,9E0,3.85E2,5E0,3.56E2,2.9E1,3.48E2,8E0,8E0,2.1E1],"tree_param":{"num_deleted":"0","num_feature":"31","num_nodes":"11","size_leaf_vector":"1"}},{"base_weights":[-3.291118E-6,2.5140329E-3,-4.6367696E-4,-5.5160595E-4,8.525595E-3,-8.425094E-3,1.15428025E-4,2.0694288E-3,-5.196002E-4,1.0893908E-3,1.7681847E-3,-1.2349746E-2,2.3867364E-5,3.0512032E-3,-8.391799E-4,-2.4853065E-4,3.332123E-4,3.6975308E-4,-2.8594842E-4,-2.7649687E-4,-7.9443195E-4,-1.7434117E-4,2.8409893E-4,-3.4976046E-4,1.0541052E-5],"categories":[],"categories_nodes":[],"categories_segments":[],"categories_sizes":[],"default_left":[0,0,0,0,0,0,0,0,0,0,0,0,0,0,0,0,0,0,0,0,0,0,0,0,0],"id":60,"left_children":[1,3,5,7,9,11,13,15,-1,-1,17,19,-1,21,23,-1,-1,-1,-1,-1,-1,-1,-1,-1,-1],"loss_changes":[4.647418E-4,1.1473179E-3,1.5639308E-3,1.1047705E-3,1.8434589E-3,8.094916E-4,8.9095754E-4,1.1329472E-3,0E0,0E0,6.742314E-4,2.9829005E-4,0E0,1.3614183E-3,1.5527955E-3,0E0,0E0,0E0,0E0,0E0,0E0,0E0,0E0,0E0,0E0],"parents":[2147483647,0,0,1,1,2,2,3,3,4,4,5,5,6,6,7,7,10,10,11,11,13,13,14,14],"right_children":[2,4,6,8,10,12,14,16,-1,-1,18,20,-1,22,24,-1,-1,-1,-1,-1,-1,-1,-1,-1,-1],"split_conditions":[-7.6305285E-2,-8.80502E-2,-6.279064E-2,-8.76068E-2,-7.84313E-2,-4.999998E-2,-2.092057E-2,-9.126222E-2,-5.196002E-4,1.0893908E-3,-3.1890664E-2,-5.10639E-2,2.3867364E-5,-6.443908E-2,-4.2755287E-2,-2.4853065E-4,3.332123E-4,3.6975308E-4,-2.8594842E-4,-2.7649687E-4,-7.9443195E-4,-1.7434117E-4,2.8409893E-4,-3.4976046E-4,1.0541052E-5],"split_indices":[14,27,14,18,25,12,13,8,0,0,5,6,0,18,26,0,0,0,0,0,0,0,0,0,0],"split_type":[0,0,0,0,0,0,0,0,0,0,0,0,0,0,0,0,0,0,0,0,0,0,0,0,0],"sum_hessian":[3.99E2,6.1E1,3.38E2,4.1E1,2E1,2.2E1,3.16E2,3.3E1,8E0,6E0,1.4E1,1.5E1,7E0,7.7E1,2.39E2,1.3E1,2E1,8E0,6E0,6E0,9E0,2.2E1,5.5E1,3.4E1,2.05E2],"tree_param":{"num_deleted":"0","num_feature":"31","num_nodes":"25","size_leaf_vector":"1"}},{"base_weights":[-4.4722087E-6,1.2610527E-4,-4.3000389E-4,-2.2431814E-5,4.879999E-4,2.1248487E-4,-7.546257E-4,1.9307814E-5,-5.411059E-4],"categories":[],"categories_nodes":[],"categories_segments":[],"categories_sizes":[],"default_left":[0,0,0,0,0,0,0,0,0],"id":61,"left_children":[1,3,-1,5,-1,7,-1,-1,-1],"loss_changes":[4.5004152E-4,5.654601E-4,0E0,1.3838902E-3,0E0,7.4199116E-4,0E0,0E0,0E0],"parents":[2147483647,0,0,1,1,3,3,5,5],"right_children":[2,4,-1,6,-1,8,-1,-1,-1],"split_conditions":[1.7158169E-1,1.3490371E-1,-4.3000389E-4,9.9585086E-2,4.879999E-4,1.00427456E-1,-7.546257E-4,1.9307814E-5,-5.411059E-4],"split_indices":[20,11,0,8,0,9,0,0,0],"split_type":[0,0,0,0,0,0,0,0,0],"sum_hessian":[3.99E2,3.94E2,5E0,3.89E2,5E0,3.84E2,5E0,3.79E2,5E0],"tree_param":{"num_deleted":"0","num_feature":"31","num_nodes":"9","size_leaf_vector":"1"}},{"base_weights":[-7.2946523E-6,3.2504073E-3,-3.3841465E-4,-1.5237422E-3,1.3323531E-2,-2.4694174E-3,4.0200114E-4,3.172246E-4,-5.373207E-3,1.2060256E-3,1.08280685E-4,-4.460356E-4,-9.07112E-3,6.946904E-3,-5.980773E-4,-5.089931E-4,9.537969E-5,-1.4465029E-4,2.8754454E-4,-1.7217633E-4,-8.408626E-4,4.5261764E-5,6.1524817E-4,-3.6135124E-4,9.322965E-6],"categories":[],"categories_nodes":[],"categories_segments":[],"categories_sizes":[],"default_left":[0,0,0,0,0,0,0,0,0,0,0,0,0,0,0,0,0,0,0,0,0,0,0,0,0],"id":62,"left_children":[1,3,5,7,9,11,13,-1,15,-1,-1,17,19,21,23,-1,-1,-1,-1,-1,-1,-1,-1,-1,-1],"loss_changes":[4.3257608E-4,1.7996536E-3,5.753221E-4,8.2159095E-4,1.3934262E-3,1.2515837E-3,1.7779624E-3,0E0,6.493523E-4,0E0,0E0,1.1235869E-3,9.0111524E-4,1.1542395E-3,1.2287013E-3,0E0,0E0,0E0,0E0,0E0,0E0,0E0,0E0,0E0,0E0],"parents":[2147483647,0,0,1,1,2,2,3,3,4,4,5,5,6,6,8,8,11,11,12,12,13,13,14,14],"right_children":[2,4,6,8,10,12,14,-1,16,-1,-1,18,20,22,24,-1,-1,-1,-1,-1,-1,-1,-1,-1,-1],"split_conditions":[-3.4090895E-2,-3.137252E-2,-5.3333286E-2,-7.766993E-2,-4.7034677E-2,-2.5695851E-2,-2.8795807E-2,3.172246E-4,-2.066271E-3,1.2060256E-3,1.08280685E-4,1.02039445E-2,-4.7008533E-2,-4.0609166E-2,-1.0446451E-2,-5.089931E-4,9.537969E-5,-1.4465029E-4,2.8754454E-4,-1.7217633E-4,-8.408626E-4,4.5261764E-5,6.1524817E-4,-3.6135124E-4,9.322965E-6],"split_indices":[2,3,16,5,15,10,15,0,26,0,0,3,23,17,15,0,0,0,0,0,0,0,0,0,0],"split_type":[0,0,0,0,0,0,0,0,0,0,0,0,0,0,0,0,0,0,0,0,0,0,0,0,0],"sum_hessian":[3.99E2,3.6E1,3.63E2,2.5E1,1.1E1,9.3E1,2.7E2,8E0,1.7E1,5E0,6E0,7.2E1,2.1E1,3.5E1,2.35E2,1E1,7E0,5.2E1,2E1,1.3E1,8E0,1.7E1,1.8E1,2.4E1,2.11E2],"tree_param":{"num_deleted":"0","num_feature":"31","num_nodes":"25","size_leaf_vector":"1"}},{"base_weights":[-5.289299E-6,8.6756813E-4,-1.2537078E-3,4.984921E-5,1.2108088E-2,-8.9107165E-3,-7.518078E-5,4.8302836E-4,-5.771962E-4,9.1794936E-4,1.7811579E-4,1.3424915E-4,-1.2479156E-2,6.088991E-3,-1.1185069E-3,-4.392952E-5,1.8802684E-4,-8.8336825E-4,-2.9521878E-4,2.3399942E-5,8.6320605E-4,-1.5178803E-4,8.42661E-5],"categories":[],"categories_nodes":[],"categories_segments":[],"categories_sizes":[],"default_left":[0,0,0,0,0,0,0,0,0,0,0,0,0,0,0,0,0,0,0,0,0,0,0],"id":63,"left_children":[1,3,5,7,9,11,13,15,-1,-1,-1,-1,17,19,21,-1,-1,-1,-1,-1,-1,-1,-1],"loss_changes":[4.3696424E-4,2.1686107E-3,1.4882887E-3,1.1154781E-3,7.892994E-4,9.4383466E-4,9.329094E-4,9.5832534E-4,0E0,0E0,0E0,0E0,4.7557778E-4,1.3110416E-3,6.7169697E-4,0E0,0E0,0E0,0E0,0E0,0E0,0E0,0E0],"parents":[2147483647,0,0,1,1,2,2,3,3,4,4,5,5,6,6,7,7,12,12,13,13,14,14],"right_children":[2,4,6,8,10,12,14,16,-1,-1,-1,-1,18,20,22,-1,-1,-1,-1,-1,-1,-1,-1],"split_conditions":[2.6455047E-2,2.1505393E-2,4.2320635E-2,3.1862736E-2,8.849627E-3,-1.587305E-2,-1.0362749E-2,1.02039445E-2,-5.771962E-4,9.1794936E-4,1.7811579E-4,1.3424915E-4,1.6932216E-2,-8.547077E-3,8.80829E-2,-4.392952E-5,1.8802684E-4,-8.8336825E-4,-2.9521878E-4,2.3399942E-5,8.6320605E-4,-1.5178803E-4,8.42661E-5],"split_indices":[22,21,22,1,5,11,8,3,0,0,0,0,12,5,17,0,0,0,0,0,0,0,0],"split_type":[0,0,0,0,0,0,0,0,0,0,0,0,0,0,0,0,0,0,0,0,0,0,0],"sum_hessian":[3.99E2,2.35E2,1.64E2,2.2E2,1.5E1,2.1E1,1.43E2,2.13E2,7E0,8E0,7E0,5E0,1.6E1,2E1,1.23E2,1.51E2,6.2E1,8E0,8E0,1.4E1,6E0,7.3E1,5E1],"tree_param":{"num_deleted":"0","num_feature":"31","num_nodes":"23","size_leaf_vector":"1"}},{"base_weights":[-3.9305232E-6,3.827137E-4,-2.7813762E-3,-2.961599E-4,4.054016E-3,-4.626805E-3,2.4392382E-4,3.6385516E-4,-6.6735856E-3,1.385043E-2,3.4099852E-5,-1.2479374E-2,-3.8373956E-4,2.0996515E-6,7.2862173E-4,-5.572477E-4,-3.285056E-5,1.1005894E-3,2.528477E-4,-2.555956E-4,3.6485257E-4,-2.4743765E-4,-1.0847704E-3,1.3310544E-4,-5.743947E-4],"categories":[],"categories_nodes":[],"categories_segments":[],"categories_sizes":[],"default_left":[0,0,0,0,0,0,0,0,0,0,0,0,0,0,0,0,0,0,0,0,0,0,0,0,0],"id":64,"left_children":[1,3,5,7,9,11,-1,13,15,17,19,21,23,-1,-1,-1,-1,-1,-1,-1,-1,-1,-1,-1,-1],"loss_changes":[4.3061786E-4,8.7850797E-4,7.152216E-4,1.2567689E-3,2.1654698E-3,1.3279697E-3,0E0,1.2387263E-3,7.459427E-4,1.0369543E-3,1.5323111E-3,8.642692E-4,9.4376435E-4,0E0,0E0,0E0,0E0,0E0,0E0,0E0,0E0,0E0,0E0,0E0,0E0],"parents":[2147483647,0,0,1,1,2,2,3,3,4,4,5,5,7,7,8,8,9,9,10,10,11,11,12,12],"right_children":[2,4,6,8,10,12,-1,14,16,18,20,22,24,-1,-1,-1,-1,-1,-1,-1,-1,-1,-1,-1,-1],"split_conditions":[4.4600945E-2,4.7618967E-2,3.6951266E-3,9.275609E-2,5.809129E-2,2.9411754E-2,2.4392382E-4,3.896105E-2,8.7640636E-2,1.5544019E-2,4.7516122E-2,7.123286E-2,1.0029444E-3,2.0996515E-6,7.2862173E-4,-5.572477E-4,-3.285056E-5,1.1005894E-3,2.528477E-4,-2.555956E-4,3.6485257E-4,-2.4743765E-4,-1.0847704E-3,1.3310544E-4,-5.743947E-4],"split_indices":[5,12,30,29,12,3,0,4,25,6,7,13,30,0,0,0,0,0,0,0,0,0,0,0,0],"split_type":[0,0,0,0,0,0,0,0,0,0,0,0,0,0,0,0,0,0,0,0,0,0,0,0,0],"sum_hessian":[3.99E2,3.51E2,4.8E1,2.97E2,5.4E1,3.9E1,9E0,2.7E2,2.7E1,1.5E1,3.9E1,1.3E1,2.6E1,2.65E2,5E0,1.5E1,1.2E1,7E0,8E0,2.3E1,1.6E1,8E0,5E0,2.1E1,5E0],"tree_param":{"num_deleted":"0","num_feature":"31","num_nodes":"25","size_leaf_vector":"1"}},{"base_weights":[-3.549591E-6,1.8409689E-4,-5.6038024E-3,-8.4200045E-5,6.8613607E-3,-6.2488456E-4,1.335452E-5,2.4986625E-4,-9.380185E-3,1.1906122E-5,5.625197E-4,2.4115892E-5,-6.811324E-4,-6.69014E-4,-1.2416809E-4],"categories":[],"categories_nodes":[],"categories_segments":[],"categories_sizes":[],"default_left":[0,0,0,0,0,0,0,0,0,0,0,0,0,0,0],"id":65,"left_children":[1,3,5,7,9,-1,-1,11,13,-1,-1,-1,-1,-1,-1],"loss_changes":[4.213787E-4,6.956756E-4,5.2949076E-4,1.1637915E-3,4.3336523E-4,0E0,0E0,1.1739075E-3,3.2541528E-4,0E0,0E0,0E0,0E0,0E0,0E0],"parents":[2147483647,0,0,1,1,2,2,3,3,4,4,7,7,8,8],"right_children":[2,4,6,8,10,-1,-1,12,14,-1,-1,-1,-1,-1,-1],"split_conditions":[1.4634143E-1,1.1956531E-1,1.350649E-1,1.0813718E-1,-2.9289027E-4,-6.2488456E-4,1.335452E-5,7.512953E-2,1.0278387E-1,1.1906122E-5,5.625197E-4,2.4115892E-5,-6.811324E-4,-6.69014E-4,-1.2416809E-4],"split_indices":[20,22,17,23,30,0,0,2,17,0,0,0,0,0,0],"split_type":[0,0,0,0,0,0,0,0,0,0,0,0,0,0,0],"sum_hessian":[3.99E2,3.87E2,1.2E1,3.73E2,1.4E1,5E0,7E0,3.61E2,1.2E1,6E0,8E0,3.56E2,5E0,7E0,5E0],"tree_param":{"num_deleted":"0","num_feature":"31","num_nodes":"15","size_leaf_vector":"1"}},{"base_weights":[-7.0902565E-6,-3.4794756E-3,2.838585E-4,6.682357E-4,-1.0102372E-2,9.2909E-3,-2.84734E-4,-5.7741394E-3,3.8440124E-4,-2.3667094E-4,-7.3412113E-4,1.4935142E-2,5.1214804E-5,-3.9301976E-3,2.4038079E-4,-7.520349E-5,-4.5409263E-4,1.6587197E-4,1.0890764E-3,-3.9449302E-4,1.1138208E-4,5.24566E-4,-1.9945888E-5],"categories":[],"categories_nodes":[],"categories_segments":[],"categories_sizes":[],"default_left":[0,0,0,0,0,0,0,0,0,0,0,0,0,0,0,0,0,0,0,0,0,0,0],"id":66,"left_children":[1,3,5,7,9,11,13,15,-1,-1,-1,17,-1,19,21,-1,-1,-1,-1,-1,-1,-1,-1],"loss_changes":[4.0510218E-4,8.5831655E-4,1.89754E-3,9.48874E-4,2.2558286E-4,1.0111936E-3,6.690308E-4,1.4170603E-4,0E0,0E0,0E0,9.6175144E-4,0E0,1.0904265E-3,2.0095287E-3,0E0,0E0,0E0,0E0,0E0,0E0,0E0,0E0],"parents":[2147483647,0,0,1,1,2,2,3,3,4,4,5,5,6,6,7,7,11,11,13,13,14,14],"right_children":[2,4,6,8,10,12,14,16,-1,-1,-1,18,-1,20,22,-1,-1,-1,-1,-1,-1,-1,-1],"split_conditions":[-1.4651158E-1,-1.4150943E-1,-1.2368969E-1,-6.5882385E-2,-9.8901115E-2,3.107272E-3,-8.737864E-2,-5.0632887E-2,3.8440124E-4,-2.3667094E-4,-7.3412113E-4,-1.1632657E-1,5.1214804E-5,3.986498E-3,-8.009707E-2,-7.520349E-5,-4.5409263E-4,1.6587197E-4,1.0890764E-3,-3.9449302E-4,1.1138208E-4,5.24566E-4,-1.9945888E-5],"split_indices":[25,20,29,5,15,30,27,2,0,0,0,21,0,30,28,0,0,0,0,0,0,0,0],"split_type":[0,0,0,0,0,0,0,0,0,0,0,0,0,0,0,0,0,0,0,0,0,0,0],"sum_hessian":[3.99E2,3E1,3.69E2,1.9E1,1.1E1,2.1E1,3.48E2,1E1,9E0,6E0,5E0,1.2E1,9E0,4.3E1,3.05E2,5E0,5E0,5E0,7E0,2.6E1,1.7E1,1.7E1,2.88E2],"tree_param":{"num_deleted":"0","num_feature":"31","num_nodes":"23","size_leaf_vector":"1"}},{"base_weights":[-5.7058246E-6,6.2249374E-4,-1.6067303E-3,3.6234388E-4,6.394573E-4,-3.9068884E-3,2.374653E-3,-4.2733148E-4,3.878543E-3,-1.2366239E-3,-1.1290435E-2,7.0982636E-3,-8.051942E-4,1.9262776E-4,-6.831105E-5,2.8976938E-4,-4.635972E-4,-2.2060097E-4,4.5587352E-4,-2.5239156E-4,-6.891671E-4,3.1277577E-5,5.783303E-4,3.2714524E-4,-1.928376E-4],"categories":[],"categories_nodes":[],"categories_segments":[],"categories_sizes":[],"default_left":[0,0,0,0,0,0,0,0,0,0,0,0,0,0,0,0,0,0,0,0,0,0,0,0,0],"id":67,"left_children":[1,3,5,7,-1,9,11,13,15,17,19,21,23,-1,-1,-1,-1,-1,-1,-1,-1,-1,-1,-1,-1],"loss_changes":[4.0330537E-4,9.0692984E-4,1.0441102E-3,7.87451E-4,0E0,1.4055916E-3,6.3657056E-4,9.375185E-4,1.3645214E-3,1.8156568E-3,2.261065E-4,4.844435E-4,6.0823624E-4,0E0,0E0,0E0,0E0,0E0,0E0,0E0,0E0,0E0,0E0,0E0,0E0],"parents":[2147483647,0,0,1,1,2,2,3,3,5,5,6,6,7,7,8,8,9,9,10,10,11,11,12,12],"right_children":[2,4,6,8,-1,10,12,14,16,18,20,22,24,-1,-1,-1,-1,-1,-1,-1,-1,-1,-1,-1,-1],"split_conditions":[1.322749E-2,7.365154E-2,5.9895843E-2,1.3157796E-2,6.394573E-4,4.0000014E-2,8.128585E-2,-8.450705E-2,4.1666664E-2,5.162184E-3,2.9712658E-2,1.4492719E-2,8.178055E-2,1.9262776E-4,-6.831105E-5,2.8976938E-4,-4.635972E-4,-2.2060097E-4,4.5587352E-4,-2.5239156E-4,-6.891671E-4,3.1277577E-5,5.783303E-4,3.2714524E-4,-1.928376E-4],"split_indices":[2,6,17,3,0,19,21,14,4,19,17,1,15,0,0,0,0,0,0,0,0,0,0,0,0],"split_type":[0,0,0,0,0,0,0,0,0,0,0,0,0,0,0,0,0,0,0,0,0,0,0,0,0],"sum_hessian":[3.99E2,2.87E2,1.12E2,2.82E2,5E0,7.1E1,4.1E1,2.31E2,5.1E1,5.3E1,1.8E1,1.6E1,2.5E1,4.1E1,1.9E2,4.5E1,6E0,4.1E1,1.2E1,6E0,1.2E1,7E0,9E0,7E0,1.8E1],"tree_param":{"num_deleted":"0","num_feature":"31","num_nodes":"25","size_leaf_vector":"1"}},{"base_weights":[-3.851601E-6,-3.42857E-3,2.8309468E-4,2.6826825E-4,-6.2170248E-3,8.877411E-3,-2.5947852E-4,-2.1889631E-3,-6.3436216E-4,1.4188411E-2,5.4268483E-5,-4.957236E-3,1.18302865E-4,-4.4025798E-4,8.094339E-5,1.5574302E-4,1.0360011E-3,1.5489812E-4,-5.0926785E-4,2.869488E-4,-1.8542349E-5],"categories":[],"categories_nodes":[],"categories_segments":[],"categories_sizes":[],"default_left":[0,0,0,0,0,0,0,0,0,0,0,0,0,0,0,0,0,0,0,0,0],"id":68,"left_children":[1,3,5,-1,7,9,11,13,-1,15,-1,17,19,-1,-1,-1,-1,-1,-1,-1,-1],"loss_changes":[3.940547E-4,7.935227E-4,1.7276303E-3,0E0,5.977266E-4,8.950379E-4,6.1996555E-4,4.173481E-4,0E0,8.7572564E-4,0E0,1.1265062E-3,8.9291815E-4,0E0,0E0,0E0,0E0,0E0,0E0,0E0,0E0],"parents":[2147483647,0,0,1,1,2,2,4,4,5,5,6,6,7,7,9,9,11,11,12,12],"right_children":[2,4,